filenames,embedding_0,embedding_1,embedding_2,embedding_3,embedding_4,embedding_5,embedding_6,embedding_7,embedding_8,embedding_9,embedding_10,embedding_11,embedding_12,embedding_13,embedding_14,embedding_15,embedding_16,embedding_17,embedding_18,embedding_19,embedding_20,embedding_21,embedding_22,embedding_23,embedding_24,embedding_25,embedding_26,embedding_27,embedding_28,embedding_29,embedding_30,embedding_31,labels
Jungfraujoch_m202001011300.jpg,-1.0665667,0.3334769,3.2598047,-0.11225123,-0.5355247,-0.08857129,-0.31393915,3.4138532,-2.2632194,-1.5747732,1.8324387,0.04636175,-1.0562342,3.814271,-0.6254741,2.5530202,0.52468324,-0.43424582,0.7709997,0.41769,1.7555194,-3.5473561,-1.4659348,-1.8120168,0.53968275,0.8959432,-2.1137664,-2.8526525,-3.1753483,0.017549396,-0.45782295,0.857787,0
Jungfraujoch_m202001021300.jpg,-1.0308285,0.21653834,3.1018617,0.001470346,-0.30450243,-0.0032666326,-0.19243076,3.4342005,-2.2589297,-1.3476709,1.8526597,0.026148401,-0.952836,3.7579002,-0.65591973,2.5152183,0.5106183,-0.32955405,0.6439925,0.51244336,1.5829866,-3.3383448,-1.4400879,-1.7842658,0.55457926,0.94637096,-2.1240237,-2.8870084,-3.2157145,-0.07056251,-0.49562615,1.0083301,0
Jungfraujoch_m202001031300.jpg,-1.6724105,-1.0750091,0.83726144,2.020251,2.76778,0.44326162,0.79049706,4.276082,-1.5433866,1.6789105,2.0038757,-0.49595708,-0.023245892,2.8992572,-0.14504799,0.99232984,0.51736206,1.630349,0.27950922,0.9992014,-1.749599,0.14991805,0.32403275,-2.0793023,0.7480769,1.1647751,-1.2805643,-1.8827106,-3.3603194,-0.8012742,-1.1091112,2.426688,0
Jungfraujoch_m202001041300.jpg,-1.534912,-1.1972895,0.6272328,2.422927,2.687934,0.69184077,0.51332915,4.152954,-1.4190164,1.8360442,2.0496213,-0.39124525,0.3255967,2.9167664,-0.075972326,0.748155,0.36250037,1.6602584,0.5769851,0.7302201,-1.3092644,0.16395155,0.3560162,-1.9460741,0.40450266,0.47702706,-1.1589128,-1.5515648,-3.2006593,-0.76010925,-0.76881444,2.6106699,0
Jungfraujoch_m202001051300.jpg,-1.1633918,0.43656737,3.529275,-0.24876231,-0.7387655,-0.14648324,-0.49724674,3.4577432,-2.3656836,-1.7932755,1.936426,0.024033286,-1.1250452,3.9764514,-0.5635607,2.613531,0.54779804,-0.5213325,0.91681755,0.3720665,1.9815795,-3.8629186,-1.4319037,-1.9115751,0.4698898,0.93547034,-2.1801543,-2.8619013,-3.2515187,0.1679005,-0.40354434,0.751729,0
Jungfraujoch_m202001061300.jpg,-1.1746242,0.4122778,3.6877398,-0.24460569,-0.7229335,-0.14249532,-0.49679145,3.5480769,-2.4363456,-1.8503267,1.992891,0.03831023,-1.1354518,4.1284313,-0.60538757,2.7107816,0.5637365,-0.50826406,0.93838745,0.40389913,2.0732286,-3.9507337,-1.4703603,-1.9716463,0.47846502,1.0058012,-2.2865627,-3.0107877,-3.367581,0.22697812,-0.4281541,0.7503106,0
Jungfraujoch_m202001071300.jpg,-1.1342257,0.4057887,3.5082874,-0.2280031,-0.68427545,-0.120198265,-0.43429065,3.4610696,-2.3752518,-1.7573935,1.9489474,0.009957366,-1.1247363,3.9796991,-0.6156583,2.6266193,0.5586376,-0.52055925,0.87194157,0.3983451,1.9666739,-3.801841,-1.4645677,-1.8984889,0.48311806,0.95389414,-2.1933155,-2.8965802,-3.2800949,0.14596534,-0.4116853,0.8059827,0
Jungfraujoch_m202001081300.jpg,-0.9135815,0.012886524,2.3477015,0.2355124,0.21873064,0.21256277,0.2775148,3.2380383,-2.0306346,-0.61756676,1.653052,-0.30896476,-0.6696485,3.0781856,-0.78850085,2.2912989,0.37630236,-0.43584105,0.010969866,0.70408314,0.9357751,-2.2809339,-1.4482898,-1.5265919,0.65839434,0.83872974,-1.819167,-2.4342387,-2.9364207,-0.3982357,-0.38828754,1.5290782,0
Jungfraujoch_m202001091300.jpg,-1.3327107,0.0657972,3.9843168,-0.0472626,-0.14785272,0.055733882,-0.36655965,3.7695298,-2.6291654,-1.5606141,2.6308117,-0.13551614,-0.6406099,4.874952,-0.5864303,2.8156521,0.55091596,-0.5674634,1.0717988,0.999467,2.6258624,-4.277235,-1.3496698,-2.4756355,0.358506,0.7094845,-2.5883675,-3.333977,-3.7852206,0.4422649,-0.23288198,1.2012348,0
Jungfraujoch_m202001101300.jpg,-1.0022615,0.17201392,2.547464,-0.012512671,-0.11287728,0.097980686,0.087832384,3.153455,-1.9488665,-0.90932673,1.5471928,-0.23330857,-0.81004393,3.128418,-0.65455383,2.2499154,0.40404898,-0.4929448,0.23745114,0.5641453,1.059792,-2.6595836,-1.4734813,-1.5150242,0.7014344,0.77209055,-1.8332078,-2.3773675,-2.8036413,-0.38640553,-0.408051,1.1447908,0
Jungfraujoch_m202001111300.jpg,-1.208772,0.4669644,3.6063704,-0.3253446,-0.812956,-0.16480373,-0.5402598,3.4701445,-2.4212487,-1.8919483,1.9602836,0.086364456,-1.23622,4.0638037,-0.5238567,2.6303425,0.5518918,-0.5328615,0.992246,0.34643257,2.085589,-3.9969375,-1.4953187,-1.9306242,0.4818097,0.90263784,-2.243855,-2.9069576,-3.2744403,0.15660626,-0.40329784,0.697091,0
Jungfraujoch_m202001121300.jpg,-1.246274,0.5150884,3.644131,-0.3583979,-0.8897605,-0.18457541,-0.5831756,3.465054,-2.4253695,-1.9654835,1.9597636,0.06694804,-1.2717358,4.074514,-0.48832372,2.6153057,0.54581743,-0.582525,1.0505574,0.30039734,2.1636739,-4.058214,-1.5107827,-1.9485999,0.46539474,0.8434566,-2.2233183,-2.848365,-3.2477808,0.18564907,-0.3751718,0.6643114,0
Jungfraujoch_m202001131300.jpg,-1.3341683,-1.0155681,1.4804338,1.7393696,2.3977413,0.6886019,0.80309707,4.0515985,-2.0011683,1.2149394,2.3741288,-0.3107183,-0.014683498,3.4197176,-0.42470706,1.5221126,0.44553658,1.238497,0.3631119,1.0025318,-0.46560377,-0.71510017,-0.5035079,-2.097215,0.54457295,0.9579789,-1.9531331,-2.4136562,-3.6530926,-0.7495852,-1.0943365,2.4406185,0
Jungfraujoch_m202001141300.jpg,-1.6936737,-1.256175,-0.41147614,2.0524468,3.3934064,0.62906957,1.403981,4.3247766,-1.4044816,2.2445652,1.366766,-0.23851219,0.014951248,2.429629,0.07467372,0.70498633,0.3516531,1.9477314,-0.33460942,1.0554092,-2.715004,0.8949596,-0.047724947,-1.5862292,1.2433058,0.9362484,-0.96592563,-1.887245,-2.9877105,-1.9888835,-1.2095635,2.7301514,0
Jungfraujoch_m202001151300.jpg,-1.0300384,0.20293428,2.6851985,-0.03264106,-0.06890845,0.069263466,0.2034914,3.2465098,-2.0252616,-0.990264,1.670665,-0.44683775,-0.8714137,3.2471964,-0.79336256,2.3624287,0.47642392,-0.69205654,0.13689679,0.63041204,1.201749,-2.5935616,-1.590912,-1.6242609,0.69206846,0.76498526,-1.806475,-2.3786898,-2.9635808,-0.26348302,-0.3532687,1.3223168,0
Jungfraujoch_m202001161300.jpg,-1.1392496,0.36840647,3.411953,-0.25241747,-0.608614,-0.05964206,-0.3550874,3.4211648,-2.4561033,-1.6567194,1.9991752,0.075167224,-1.188962,3.9485607,-0.59266686,2.609744,0.51902384,-0.48895016,0.8097369,0.43941617,1.9380627,-3.729241,-1.5575812,-1.871551,0.5122922,0.95985955,-2.295461,-2.9245675,-3.291004,0.011674926,-0.44783118,0.89089125,0
Jungfraujoch_m202001171300.jpg,-1.5538648,-0.90055436,2.151659,1.7950623,2.2573488,0.47470066,0.5152843,4.5883102,-2.0881457,0.8423466,2.494093,-0.3722213,-0.023422286,3.9927752,-0.402447,1.8037956,0.52630687,1.1909212,0.63151926,1.1374309,-0.13250712,-1.2588811,-0.3759915,-2.5283036,0.5182128,1.0170468,-2.086786,-2.6756177,-3.8923564,-0.37527925,-1.1206324,2.3797038,0
Jungfraujoch_m202001181300.jpg,-0.78503984,0.06372169,1.6459885,0.1774874,0.13713956,0.22176817,0.118992,2.691629,-1.9495896,-0.40460047,1.527903,0.3102081,-0.8931094,2.6056566,-0.39500013,1.8398981,0.31724694,-0.10325284,0.09910727,0.54236805,0.69697267,-2.2955575,-1.3528749,-1.1769109,0.6017579,0.59244347,-1.7508603,-2.2400782,-2.6411543,-0.80803955,-0.4610831,1.3966889,0
Jungfraujoch_m202001191300.jpg,-0.8390149,0.08175118,1.8542994,0.30113754,0.08371759,-0.006498322,0.06333153,3.1069293,-1.9781237,-0.6735894,1.401556,0.5468437,-1.2194222,2.9421732,-0.37808818,2.0018408,0.38796172,0.23089275,0.4739244,0.42111164,0.7249415,-2.4976556,-1.4618366,-1.3562407,0.6937701,0.5694508,-1.8172445,-2.5087128,-2.7136025,-0.8042974,-0.78820944,1.1517179,0
Jungfraujoch_m202001201300.jpg,-0.8474622,0.19171579,2.1511729,0.052888706,-0.19697186,0.12083828,-0.01948442,2.9250734,-2.0751052,-0.8738723,1.5939766,0.2581061,-1.076885,2.996925,-0.50309384,2.0914361,0.3734719,-0.20169586,0.42998284,0.40157896,1.1743892,-2.7701075,-1.5090061,-1.3306012,0.570776,0.5698973,-1.8649994,-2.4093764,-2.7831779,-0.5571856,-0.41636,1.181431,0
Jungfraujoch_m202001211300.jpg,-0.8329375,0.08464077,1.9393727,0.102486596,0.023299463,0.15511326,0.14590536,2.963139,-2.000921,-0.65081525,1.4717554,0.25167844,-1.0373958,2.8960247,-0.5281521,2.0465667,0.383189,-0.16409504,0.16688898,0.6059161,0.8507803,-2.5112069,-1.5104077,-1.3018426,0.6897187,0.6576888,-1.8452449,-2.475479,-2.711289,-0.7493161,-0.4949919,1.3147898,0
Jungfraujoch_m202001221300.jpg,-0.9337767,0.31530768,2.531783,-0.07419792,-0.42763776,0.030947227,-0.1473722,3.0257213,-2.1744347,-1.1831756,1.6956229,0.2015548,-1.1359143,3.242286,-0.52273077,2.246736,0.40673,-0.3812957,0.56137735,0.37676185,1.4593433,-3.0917966,-1.5128392,-1.4906473,0.55252993,0.6415091,-1.9395096,-2.4931145,-2.871653,-0.36850715,-0.37357527,1.0773042,0
Jungfraujoch_m202001231300.jpg,-0.99619734,0.32941118,2.5346444,-0.085609004,-0.35099894,-0.00043634698,-0.17073989,3.0116625,-2.1192048,-1.1166104,1.6720332,0.17397824,-1.0633793,3.1659331,-0.4130587,2.1809828,0.4006538,-0.3404926,0.5192741,0.41407424,1.3024997,-3.040838,-1.446833,-1.5157881,0.5753363,0.7125385,-1.95719,-2.4413605,-2.8261392,-0.399747,-0.49547303,1.0204618,0
Jungfraujoch_m202001241300.jpg,0.044015422,-0.22217773,-1.0511205,0.9523733,-0.574703,1.0850099,-0.30938184,-1.7977248,0.2403902,0.4922197,-0.66084373,-0.24403587,1.0764251,-1.3117108,1.2799141,-1.8952472,-0.21802971,-0.36329865,0.26326537,-0.52823997,0.6245461,0.719533,0.91416657,1.1103939,-0.9995239,-0.22528802,0.8522211,1.1182162,0.5098086,0.95477605,1.6648581,0.063309,0
Jungfraujoch_m202001251300.jpg,-1.2834135,-0.5078759,0.897085,0.74049836,1.4049985,0.5290613,0.56941605,3.1306162,-1.7886155,0.7283454,1.8540803,-0.26064432,-0.45937634,2.5963588,-0.18498434,1.0924635,0.4236449,0.6286445,0.06827107,0.74450165,-0.5493196,-1.0522655,-0.6353841,-1.4174972,0.6362651,0.7950688,-1.4298007,-1.8215532,-2.8751202,-1.1085325,-0.56585634,1.9468288,0
Jungfraujoch_m202001261300.jpg,-1.7301078,-1.4698119,-0.97973055,2.7178223,3.4425776,0.6771658,0.7484354,3.7096293,-0.7801738,2.7373679,1.4780536,-0.5554006,0.7452994,1.7846781,0.4010751,-0.33956197,0.19739065,2.1991966,0.26572323,0.33778825,-2.736985,1.6541768,1.1534084,-1.2552425,0.6363398,0.15508452,5.1617622e-05,-0.52266294,-2.6374955,-1.1174754,-0.49210444,2.678276,0
Jungfraujoch_m202001271300.jpg,-0.42230153,-0.64048,-0.6035387,1.3036981,0.48841012,0.59895796,-0.062757984,0.24456832,-0.10801494,0.9029092,0.19088903,-0.34638003,0.6727672,-0.098216474,0.49039885,-0.7896958,-0.22816257,0.15857777,0.29765907,-0.37992257,-0.31656766,0.8181388,0.49380818,0.11646961,-0.28805977,-0.3384524,0.38757145,0.5069156,-0.3982114,0.1534472,0.4431954,0.7773876,0
Jungfraujoch_m202001281300.jpg,0.1729562,-0.08362025,-0.9253117,0.8549433,-0.79370844,1.0628449,-0.32110777,-1.9603074,0.22223225,0.22817422,-0.7568087,-0.29846406,1.0821706,-1.38189,1.2768579,-1.8755492,-0.15916556,-0.50647175,0.3030587,-0.50364625,0.917868,0.48341227,0.8832853,1.127853,-1.1570195,-0.115566224,0.88743097,1.0854943,0.5776354,1.1389518,1.6989069,-0.015305596,0
Jungfraujoch_m202001291300.jpg,-0.17316349,-0.4822798,-0.47314304,0.8160324,0.04099275,0.83780897,0.073019534,-0.14256614,-0.26442978,0.3984134,0.10035624,-0.4839911,0.5037556,-0.07076174,0.19808742,-0.5984702,-0.15735002,-0.33139923,0.22016686,-0.27205697,0.40278363,0.461047,0.20941012,0.1106666,-0.55910176,-0.21093346,0.34083533,0.34919405,-0.1326877,0.31202364,0.8513893,0.6761179,0
Jungfraujoch_m202001301300.jpg,-1.0247293,-0.4947611,0.6240395,1.0119908,1.5338225,0.21286198,0.89802647,3.3004766,-1.674669,0.7503296,1.2412854,0.025870834,-0.6319335,2.1952293,-0.38910347,1.5794874,0.23055683,0.45973003,-0.48388475,0.8984354,-0.87624156,-0.533744,-1.0314955,-1.3263218,1.035038,0.70407295,-1.3112175,-2.0468764,-2.5747452,-1.3010164,-0.9256927,2.1094134,0
Jungfraujoch_m202001311300.jpg,-0.83967024,0.20855808,1.8127263,0.13441202,0.015023436,0.012065763,0.1659715,2.7999759,-1.7083058,-0.5440988,1.3594152,-0.064535215,-0.85911745,2.5538225,-0.5236989,1.8932327,0.47075817,-0.35090604,0.049623225,0.5438909,0.5191905,-2.1209986,-1.2836368,-1.2456647,0.6995498,0.5912249,-1.4598557,-1.9835536,-2.5285518,-0.6853082,-0.45668468,1.2794602,0
Jungfraujoch_m202002011300.jpg,-1.2526532,-1.4317548,-0.80633897,2.8263958,3.2342634,0.76407754,0.6714542,3.7495508,-0.8067383,2.576424,1.3250024,-0.25495458,0.5752998,1.7567858,-0.033583738,0.12813242,0.23376915,2.2322495,0.076698214,0.67475003,-2.228331,1.4284945,0.797382,-1.2574972,0.36421797,0.21921618,-0.5041408,-1.062144,-2.5714788,-0.87903833,-0.5673558,2.8309023,0
Jungfraujoch_m202002021300.jpg,0.15617608,-0.12969597,-0.91468316,0.8667466,-0.72194517,1.0669518,-0.31149155,-1.8886124,0.23490068,0.29619175,-0.6967974,-0.25968742,1.0623193,-1.3322934,1.2326168,-1.8244423,-0.19476037,-0.45483342,0.31728613,-0.51635176,0.827921,0.51305705,0.8792238,1.0999291,-1.0924844,-0.14085375,0.8376089,1.0680711,0.54217863,1.0614585,1.6485605,-0.0068160156,0
Jungfraujoch_m202002031300.jpg,-0.08105094,-0.6105332,-0.2890014,1.2925806,0.2632627,0.7819999,-0.18556127,0.25896406,-0.37601355,0.84626395,0.27515733,0.16621754,0.6982212,0.33369142,0.49701926,-0.42607886,-0.14089261,0.20276,0.28632686,-0.07613395,0.07205401,0.073511474,0.29826814,0.2521127,-0.40165672,-0.2622612,0.015426017,-0.03958533,-0.837175,-0.0983938,0.610942,0.93424535,0
Jungfraujoch_m202002041300.jpg,-0.28370136,-0.23849101,2.071508,0.34559745,-0.16677985,0.73699975,0.07194105,1.4289104,-1.7002697,-0.5980874,1.7658001,-0.0915108,-0.1344622,2.6131396,-0.43594575,1.3157351,0.26529616,-0.49796876,0.759921,0.40442395,2.081501,-2.3214958,-0.9525618,-1.0693212,-0.29035053,0.35015288,-1.5645198,-1.8009992,-2.3806686,0.29812586,0.2598402,1.0300233,0
Jungfraujoch_m202002051300.jpg,-2.0193415,-0.7296236,-4.055644,1.983179,3.900612,0.82682776,0.982646,1.5277865,-0.35452333,3.8217025,2.3688765,-0.4406398,0.64855164,0.5917377,1.935977,-3.2299743,1.21591,2.1322103,0.21502635,0.21275002,-3.8691947,2.0667748,2.612746,-0.51636976,0.4065697,-1.1428978,1.9807779,1.6011918,-2.0992742,-2.7277985,0.68454766,3.3991385,0
Jungfraujoch_m202002061300.jpg,-0.88245356,-0.65956056,-0.20860896,1.5092223,2.0574849,0.17052338,1.0090905,3.1765027,-1.265089,1.217026,0.9697271,0.43092674,-0.6669605,1.8552847,-0.23825693,1.0462608,0.40661478,1.0876578,-0.6275557,0.6671772,-1.7772074,0.2779563,-0.6547979,-1.0860959,1.1535437,0.62274605,-0.8407096,-1.926156,-2.5200534,-1.5715744,-1.189134,2.1258838,0
Jungfraujoch_m202002071300.jpg,-0.85574603,0.38235146,2.0930495,-0.09092884,-0.4065694,0.011841591,-0.01870857,2.7423964,-1.9117815,-1.007401,1.3558118,0.295542,-1.2280192,2.7542696,-0.3992939,2.0399163,0.3833651,-0.35298413,0.42738017,0.3267147,1.1150283,-2.7632267,-1.5613602,-1.2538068,0.67964983,0.46427548,-1.7561387,-2.2183275,-2.522023,-0.60345477,-0.42118737,0.94967103,0
Jungfraujoch_m202002081300.jpg,-1.2834802,-1.3754404,-0.33240193,2.14161,3.3182538,1.0911493,1.1463892,3.6508694,-1.4194627,2.4556682,2.1183984,-0.5540222,0.39937395,2.4239147,-0.21092525,0.2939027,0.6224115,1.8651295,-0.11985208,1.1936562,-1.8090997,0.69449586,0.22851305,-1.5810826,0.33761412,0.7579539,-1.1434045,-1.6311688,-3.1410427,-1.3402631,-0.74876976,3.087167,0
Jungfraujoch_m202002091300.jpg,-0.7200004,0.2631253,1.6025978,0.13486129,0.0220773,0.048368745,0.19440219,2.6752362,-1.8284925,-0.58348954,1.2867818,0.48214734,-1.1415752,2.474466,-0.32985038,1.8698212,0.40511975,-0.01748541,0.17687985,0.47874978,0.60433507,-2.348436,-1.5050901,-1.123285,0.7609411,0.57021993,-1.748821,-2.2785916,-2.4923072,-0.9299984,-0.73185754,1.1511611,0
Jungfraujoch_m202002101300.jpg,-0.04052881,-0.30087504,-0.4081267,0.8332689,-0.22413553,0.7961128,-0.11308217,-0.731555,-0.09703079,0.3540386,-0.12410559,-0.32513288,0.7620119,-0.5156476,0.6556662,-0.9295144,-0.21504304,-0.3348593,0.22814904,-0.26497886,0.5531671,0.24738754,0.41605264,0.45176318,-0.66213346,-0.10007988,0.3472971,0.48525274,-0.05500664,0.63515466,0.9300765,0.3909034,0
Jungfraujoch_m202002111300.jpg,0.14716358,-0.12278251,-0.95430917,0.88142675,-0.737684,1.0534643,-0.3275662,-1.8825071,0.21765652,0.29421636,-0.73568505,-0.28099796,1.0707881,-1.3462582,1.2465744,-1.8404967,-0.16095537,-0.45182696,0.29254502,-0.5024331,0.83906,0.5425139,0.8812847,1.1095331,-1.1217993,-0.14471854,0.8681234,1.0765165,0.55272454,1.092086,1.6704891,0.006574534,0
Jungfraujoch_m202002121300.jpg,-0.41122064,-0.67940515,-0.70751643,1.3282633,0.39855495,0.9305974,-0.07419575,-0.13470513,-0.1133184,1.0579683,0.11917035,-0.21774456,0.9223837,-0.21019715,0.7550101,-0.9540568,-0.35601336,-0.00013194978,0.20069976,-0.3360772,-0.17316353,0.7387207,0.5537925,0.37036407,-0.29477626,-0.4099684,0.34094703,0.5266284,-0.4211623,0.15486296,0.91209286,0.7669226,0
Jungfraujoch_m202002131300.jpg,-0.04707191,-0.3028621,-0.6256099,0.93050873,-0.30405566,0.82980436,-0.18210118,-0.9636071,0.028008632,0.39545658,-0.3085874,-0.3404707,0.85772187,-0.7389765,0.80879843,-1.2042245,-0.19631635,-0.33886686,0.23186362,-0.3764429,0.48655245,0.470373,0.5747686,0.61331946,-0.7456601,-0.1587716,0.5612591,0.6924076,0.11247666,0.7398304,1.0912381,0.30174482,0
Jungfraujoch_m202002141300.jpg,-0.6413957,0.27856353,1.1375127,0.12704039,-0.028322017,0.16241297,0.29725784,2.2961907,-1.5682416,-0.33179235,1.0301322,0.33074635,-0.973746,1.8940558,-0.32703733,1.6482154,0.23477218,-0.1945984,0.040560283,0.3862489,0.46563584,-1.9266697,-1.4282637,-0.87291306,0.7479602,0.2824768,-1.4632328,-1.7594732,-2.0262103,-0.9919988,-0.42715275,1.1684358,0
Jungfraujoch_m202002151300.jpg,-0.5948488,-0.029899728,0.82115686,0.33780065,0.53757703,0.37985379,0.6710175,2.4895833,-1.6423519,0.12484509,1.1382664,0.2041917,-0.85351974,1.9636503,-0.53401935,1.6323513,0.28992677,-0.09233185,-0.41508904,0.6774363,0.07514848,-1.3925027,-1.4976398,-0.886012,0.81897295,0.43148997,-1.4649632,-1.9724454,-2.2489595,-1.2496214,-0.43809313,1.6843711,0
Jungfraujoch_m202002161300.jpg,-1.3770789,-1.081886,0.9373146,2.2194345,2.3359957,0.38544548,0.3829466,3.7519417,-1.3873018,1.3687662,1.7974317,-0.16327858,0.27019754,2.697626,-0.041436926,1.1007574,-0.034247883,1.199818,0.48429993,0.59679776,-0.81245434,0.09503911,0.09143138,-1.9755822,0.4670428,0.29868942,-1.1773053,-1.4977474,-2.7723825,-0.4470582,-0.9537451,2.2357953,0
Jungfraujoch_m202002171300.jpg,-1.8274598,-1.5775087,-0.30827826,2.7906277,3.9873366,0.9519234,1.1434906,4.595205,-1.4925996,2.878814,2.2174597,-0.30407915,0.3214133,2.8238583,0.09099917,0.38967872,0.51755565,2.4985893,0.042551383,1.1353307,-2.7167022,1.2335963,0.69490325,-2.0174518,0.7251256,0.99567866,-1.2117056,-1.7844896,-3.6255844,-1.476518,-1.1085603,3.287513,0
Jungfraujoch_m202002181300.jpg,-0.55758035,0.21359825,0.8962746,0.19884446,0.07599254,0.22219332,0.29570162,2.258092,-1.7038287,-0.1839312,1.1174991,0.6581671,-1.0930473,1.9242458,-0.2711344,1.5640135,0.27299684,0.022593796,-0.054691933,0.40208286,0.3784842,-1.9309193,-1.5028713,-0.75231254,0.7492557,0.2835973,-1.5788136,-1.9511344,-2.1880946,-1.229024,-0.5035983,1.3419288,0
Jungfraujoch_m202002191300.jpg,0.011531346,-0.24231558,-0.88816494,0.90515894,-0.4749356,0.9668919,-0.23172915,-1.3408251,0.119972475,0.41308403,-0.5914702,-0.34304547,0.96074665,-1.0323265,1.0045303,-1.5430185,-0.12675782,-0.35538942,0.15263243,-0.37016526,0.56563103,0.5958785,0.7277652,0.88308024,-0.9104623,-0.13525672,0.7422143,0.8378622,0.34955776,0.87078536,1.4672378,0.20619772,0
Jungfraujoch_m202002201300.jpg,-0.49381772,-0.40658525,-0.7555559,0.72098964,1.2182846,0.65478355,1.1116819,2.3174932,-1.3657,1.1040193,0.79354876,0.5053411,-0.88631797,1.3592052,-0.39317507,0.7874159,0.39451596,0.57090515,-0.8467979,0.7672849,-1.1419411,-0.33937517,-1.3308227,-0.37573722,0.9772476,0.26360264,-1.0288572,-1.760334,-1.9834107,-2.2136595,-0.4747496,2.208068,0
Jungfraujoch_m202002211300.jpg,-0.6648444,-0.08582282,0.27333814,0.5500446,0.6999728,0.25437903,0.6341115,2.5172281,-1.5676286,0.28568184,1.0464461,0.7493503,-1.0888954,1.9715393,-0.26496145,1.3249278,0.3983868,0.4079854,-0.21235563,0.63783514,-0.3122248,-1.3291085,-1.2400651,-0.9009737,0.919603,0.28702438,-1.3671145,-2.0760384,-2.1996055,-1.5197432,-0.63728976,1.6339012,0
Jungfraujoch_m202002221300.jpg,-0.7762897,0.49128127,1.7394743,-0.13800006,-0.46667024,0.019214066,0.022223745,2.4865901,-1.787668,-0.91440314,1.1588913,0.49628797,-1.2992471,2.393222,-0.24481438,1.86569,0.3288721,-0.25075272,0.45267463,0.26350793,1.0121744,-2.7177832,-1.5863135,-1.0650818,0.7283877,0.30224323,-1.7220923,-2.0583117,-2.223281,-0.8084783,-0.4425576,0.834225,0
Jungfraujoch_m202002231300.jpg,0.010867819,-0.34160617,-0.8229108,0.88212514,-0.27591676,0.9692956,-0.123116836,-1.0127254,0.06296527,0.472415,-0.37712175,-0.41541684,0.87871814,-0.78106123,0.7313092,-1.3210504,-0.117495485,-0.33044308,0.17957866,-0.33676064,0.5023083,0.5346445,0.57298875,0.7213648,-0.8457987,-0.2231576,0.66304374,0.74075925,0.21317175,0.63077295,1.3135784,0.40512747,0
Jungfraujoch_m202002241300.jpg,-0.6661136,0.20226282,1.1358573,0.19342248,0.15054789,0.17067695,0.3672252,2.5159078,-1.7634566,-0.30927193,1.1839072,0.48799488,-1.1137838,2.1764123,-0.3374675,1.6792575,0.36677137,-0.00095008314,-0.04082722,0.5341078,0.40396616,-1.9993172,-1.5345229,-1.0028367,0.7645908,0.4621749,-1.6572337,-2.1412737,-2.292905,-1.123881,-0.6396231,1.3419994,0
Jungfraujoch_m202002251300.jpg,-0.022329703,-0.26083803,-0.69862884,0.87013876,-0.4435929,0.8926139,-0.23423107,-1.1836994,0.062357858,0.35963285,-0.38187802,-0.36190543,0.86200064,-0.8774186,0.90212303,-1.398033,-0.17339021,-0.32896847,0.32932013,-0.42722094,0.5693118,0.48352152,0.7021507,0.7153069,-0.8737066,-0.11227779,0.63821584,0.8321848,0.24947008,0.8221323,1.2488728,0.20375352,0
Jungfraujoch_m202002261300.jpg,0.07649055,-0.14367689,-1.0362462,0.8803259,-0.6945354,1.0365735,-0.30050763,-1.8595375,0.2178241,0.34353358,-0.773555,-0.3110716,1.0601057,-1.3641104,1.291804,-1.9107432,-0.15803215,-0.42079473,0.24079022,-0.4655945,0.781043,0.6395823,0.8720031,1.1202501,-1.0774201,-0.16614483,0.88856035,1.0852525,0.5963101,1.0792342,1.6956974,0.015668098,0
Jungfraujoch_m202002271300.jpg,0.09315139,-0.17399764,-1.0434682,0.93258095,-0.664703,1.111521,-0.32170904,-1.9089671,0.24382752,0.42180333,-0.7094591,-0.24947077,1.0867543,-1.3936417,1.3090615,-1.922353,-0.21789163,-0.39576003,0.29786205,-0.54297125,0.7251463,0.6649642,0.9393648,1.1486714,-1.0702742,-0.17984363,0.8652139,1.138043,0.5504298,1.0473891,1.7124958,0.013951585,0
Jungfraujoch_m202002281300.jpg,-2.2740083,0.80944943,7.0895667,-1.178972,-1.9513146,-0.57804894,-2.4532397,4.724844,-4.4518166,-4.1664276,4.333345,0.8758122,-1.7724559,7.7900147,0.07446324,3.8072023,0.91597366,-0.6775712,2.8932352,0.6609306,5.410505,-8.282005,-0.86862,-3.8290796,-0.31798935,1.6524738,-3.982685,-5.101671,-5.5405774,2.0929043,0.0730538,0.26454026,0
Jungfraujoch_m202002291300.jpg,-1.5989387,-1.1684564,0.9871844,2.3520663,2.8868465,0.44433954,0.56451344,4.5314045,-1.5415385,1.6072533,1.8644407,-0.17315397,0.10959619,3.074734,-0.09386471,1.2524874,0.20049551,1.7291666,0.35714775,1.0849475,-1.2777436,0.09558243,0.28795534,-2.32605,0.5463653,0.81516093,-1.4476292,-2.0291052,-3.2117612,-0.55646366,-1.0988774,2.6067038,0
Jungfraujoch_m202003011300.jpg,-2.1192963,0.7858695,6.8140426,-1.0861701,-1.8427014,-0.5388069,-2.2824464,4.5838623,-4.2664466,-3.971515,4.099135,0.8834748,-1.7074473,7.4669275,0.014848538,3.735252,0.86791795,-0.62104845,2.7378516,0.62387085,5.167522,-7.9137754,-0.982957,-3.6326296,-0.24999285,1.5658875,-3.8864303,-4.9438787,-5.321969,1.8833365,-0.03707766,0.27234685,0
Jungfraujoch_m202003021300.jpg,-0.5476151,-0.13872257,0.72585404,0.7433447,-0.27102843,0.8043592,-0.06750092,0.18474361,-0.7353513,-0.28772476,0.58473057,-0.7475853,0.6951983,0.6664285,0.392395,-0.039272815,-0.30195495,-1.0473564,0.34708333,-0.30452222,1.4061472,-0.46134192,0.1033111,-0.28971407,-0.39209643,-0.047804877,0.01839032,0.009845257,-0.93334126,1.0506521,1.1821154,0.72266644,0
Jungfraujoch_m202003031300.jpg,-2.134036,0.6596786,6.391801,-0.8348608,-1.1326692,-0.2912681,-1.4366568,4.5322185,-3.9633598,-3.459468,4.0076895,-0.09729992,-1.1072252,6.9793873,-0.3232776,3.649511,0.729092,-1.1311765,2.15411,0.785716,4.8479433,-6.734612,-1.0129284,-3.6052508,-0.037932567,1.41624,-3.385961,-4.3349566,-5.1446786,1.9081081,0.234128,0.8729917,0
Jungfraujoch_m202003041300.jpg,-1.429072,0.23308049,4.745181,-0.4350435,-0.44309536,0.16040635,-0.5993849,3.6724582,-3.0444877,-1.9537395,3.1457496,-0.32345477,-0.511238,5.3226957,-0.66862565,3.143019,0.4899922,-0.9902585,1.2158464,1.0517888,3.5890326,-4.9507184,-1.3420335,-2.6411822,0.137542,0.82900286,-2.9443438,-3.4265482,-4.123764,0.9155795,0.18971103,1.2621598,0
Jungfraujoch_m202003051300.jpg,-0.13770846,-0.24542883,-1.6016215,1.082488,-0.3910563,0.9868398,-0.2250921,-1.5509034,0.24460912,0.83529276,-0.80706096,-0.40925932,1.1574142,-1.428675,1.3294421,-2.0790563,-0.06829701,-0.17588593,0.047402054,-0.2970539,0.35772324,1.005684,0.94514596,1.2096364,-0.8888073,-0.47595736,1.0483191,1.2195514,0.59441835,0.817192,1.83918,0.34431937,0
Jungfraujoch_m202003061300.jpg,0.17247431,-0.12235708,-0.8025044,0.8047974,-0.7022502,0.9852411,-0.2755661,-1.7431982,0.1996489,0.22862825,-0.617127,-0.27309376,0.97866476,-1.207521,1.1016747,-1.6750928,-0.16994068,-0.4661991,0.3383381,-0.48827755,0.8237382,0.42040795,0.7940763,0.9899493,-1.0502628,-0.117075235,0.78615123,0.9852074,0.502322,0.98134464,1.498387,0.01494951,0
Jungfraujoch_m202003071300.jpg,-1.1517956,-0.31474927,3.104991,0.5456254,0.40479565,0.08002473,-0.306457,3.5461931,-2.2710729,-0.7990734,2.241322,0.034064263,-0.45967644,4.1305504,-0.45523745,2.3044355,0.30427524,-0.004983075,0.8685309,0.7158772,1.7640917,-2.9863863,-1.0576123,-2.1640556,0.25791243,0.5321767,-2.1311834,-2.7570486,-3.3439517,0.22194254,-0.5061686,1.338291,0
Jungfraujoch_m202003081300.jpg,-1.0277072,-0.53687525,2.2293725,0.6604247,0.97074425,0.895146,0.29856446,3.0276744,-2.0820806,0.0790696,2.6017518,-0.28518435,-0.08017677,3.8300717,-0.52892977,1.5923547,0.59746855,0.19593358,0.79134727,0.9403327,1.3467323,-2.4293125,-0.888284,-1.9140209,0.09531164,0.49778372,-2.1579256,-2.452971,-3.3273141,-0.36792207,-0.16673325,1.774011,0
Jungfraujoch_m202003091300.jpg,0.13217394,-0.107820615,-0.98141384,0.87371325,-0.76440907,1.0639874,-0.31624714,-1.937446,0.21851483,0.27741155,-0.7717033,-0.30905744,1.0798227,-1.3913856,1.2957973,-1.9066043,-0.15861243,-0.47528228,0.27790472,-0.49108994,0.8663712,0.557888,0.8904879,1.1322134,-1.1362301,-0.12609875,0.8936327,1.0930628,0.59136355,1.133193,1.7142996,-0.0068822857,0
Jungfraujoch_m202003101300.jpg,0.0109350085,-0.2590561,-0.78407717,0.8985071,-0.46212417,0.98218584,-0.19228789,-1.2032812,0.058212668,0.36924538,-0.48536348,-0.390437,0.9293821,-0.90380454,0.87316656,-1.3869593,-0.13528863,-0.4337602,0.15161146,-0.36366296,0.58532345,0.51563555,0.6690625,0.78481597,-0.8828645,-0.10601656,0.7001212,0.75849944,0.2394297,0.8375001,1.4337707,0.2896111,0
Jungfraujoch_m202003111300.jpg,-1.6919881,0.38094234,5.527463,-0.6433288,-1.0249968,-0.25490147,-1.3649449,4.1316175,-3.5256033,-2.868688,3.4511168,0.30676898,-1.3204012,6.2803335,-0.36113945,3.2262309,0.8273359,-0.5747466,1.9427422,0.8326895,4.0452657,-6.122208,-1.1310129,-3.0915616,-0.08632843,1.2636675,-3.2282124,-4.2024927,-4.6504188,1.3642396,-0.09543453,0.7212838,0
Jungfraujoch_m202003121300.jpg,-1.5319842,-1.4283371,-2.3740392,2.7265885,3.6519713,0.9567951,0.970513,2.851328,-0.65045166,3.2969093,1.507016,-0.41262496,0.8445343,1.2525969,0.6613903,-1.1897603,0.58404547,1.949315,-0.28042936,0.7869473,-2.8625884,2.0888486,1.2385596,-0.8706809,0.39321274,-0.48141998,0.45639813,-0.17045069,-2.2029986,-1.7258731,0.034214363,3.357651,0
Jungfraujoch_m202003131300.jpg,-1.8886249,0.5985138,6.2747335,-0.8723879,-1.4434394,-0.44776788,-1.8606528,4.4276133,-3.965686,-3.4721003,3.8067813,0.7605152,-1.5960928,6.9513316,-0.15421174,3.6116111,0.80176795,-0.46687812,2.4881465,0.6820928,4.6897955,-7.1976986,-1.1029432,-3.4077039,-0.14496157,1.4133132,-3.7007203,-4.6853437,-5.0421195,1.6141334,-0.17873716,0.4019955,0
Jungfraujoch_m202003141300.jpg,0.17242321,-0.1240866,-0.77469707,0.7910069,-0.68690276,0.9700836,-0.26405638,-1.6935806,0.19611031,0.22506352,-0.5883809,-0.27577677,0.962451,-1.1719834,1.0620873,-1.6317542,-0.16928238,-0.45679212,0.34667215,-0.48033077,0.80724823,0.3979281,0.77600753,0.9626194,-1.0285625,-0.11245797,0.76255894,0.9623941,0.4864904,0.9495162,1.4589193,0.02211802,0
Jungfraujoch_m202003151300.jpg,-2.1781178,0.7970168,6.929193,-1.1430873,-1.8942394,-0.54300743,-2.3497334,4.6457276,-4.4106493,-4.0439415,4.243009,0.83479905,-1.7678945,7.5760055,0.011276767,3.7493858,0.90422803,-0.63785684,2.745622,0.62100095,5.2212334,-8.002249,-0.9320872,-3.6906698,-0.3136098,1.7301426,-3.9264183,-5.00045,-5.4650326,1.9655505,-0.009036545,0.3268056,0
Jungfraujoch_m202003161300.jpg,-2.1406448,0.7758151,6.89809,-1.1016871,-1.778979,-0.50121385,-2.201652,4.6509976,-4.3619385,-3.9647472,4.2477674,0.697454,-1.6910877,7.5389767,-0.07862969,3.7702427,0.91186327,-0.6931419,2.6730173,0.67301905,5.2134323,-7.882049,-0.9938847,-3.6847045,-0.28154105,1.6844302,-3.8957345,-4.957369,-5.477185,1.9579201,0.00017154962,0.41883224,0
Jungfraujoch_m202003171300.jpg,-0.5078213,-0.22296464,-0.34602734,0.6231337,0.9174337,0.5280566,0.82719225,2.180716,-1.513388,0.7825978,0.9434485,0.7212606,-0.9138614,1.4338765,-0.26930696,1.0322068,0.27063966,0.42320445,-0.6722471,0.64214456,-0.68610907,-0.7617545,-1.3117002,-0.4730497,0.9275309,0.25171605,-1.2621973,-1.8292832,-2.0905366,-1.8621389,-0.50559855,1.9801159,0
Jungfraujoch_m202003181300.jpg,-0.6866909,0.5121921,1.1690073,-0.05994018,-0.3288501,0.020890836,0.13039589,2.1748788,-1.5345197,-0.6097151,0.9207792,0.6194728,-1.2324378,1.8923941,-0.09385224,1.5817469,0.29156134,-0.18163252,0.2711253,0.24702494,0.5737169,-2.3200812,-1.4466604,-0.81269735,0.83185816,0.14450261,-1.4659195,-1.7621739,-1.921459,-1.073769,-0.450241,0.85242915,0
Jungfraujoch_m202003191300.jpg,-0.60032475,0.40531224,0.98994946,0.056091066,-0.14462128,0.10149413,0.33255896,2.2533867,-1.5183276,-0.452997,0.8176949,0.6490271,-1.2591188,1.8139923,-0.23502058,1.6405628,0.26794896,-0.123927,0.053958334,0.31743276,0.38750586,-2.0528188,-1.6013855,-0.75915074,0.93103576,0.18995133,-1.5069102,-1.8879548,-1.9162352,-1.2235249,-0.54571784,1.0047729,0
Jungfraujoch_m202003201300.jpg,-2.1776972,-1.1802478,-2.4853506,2.6200583,4.5075226,0.9505623,1.5513841,3.6662796,-1.0474926,3.5343184,2.3942914,-0.5818995,0.44338906,1.9089516,1.0743145,-1.5353158,1.114929,2.821049,0.25781775,1.0689216,-3.8009906,1.7444661,2.0065536,-1.6507772,0.6878143,0.47957855,0.38722718,-0.45912194,-3.0988343,-2.2161555,-0.44574195,3.626924,0
Jungfraujoch_m202003211300.jpg,-1.5077642,0.26839203,5.1720085,-0.515749,-0.3921764,0.17603868,-0.52610266,3.964498,-3.369777,-2.279247,3.4719713,-0.36998504,-0.75647664,5.835983,-0.76968914,3.339546,0.6395412,-0.97208464,1.329155,0.999598,3.8747766,-5.2606354,-1.5332875,-2.9533432,0.095528215,1.1185708,-3.1669466,-3.8397582,-4.5381527,1.0382286,-0.00011713058,1.2752135,0
Jungfraujoch_m202003221300.jpg,-1.2857165,0.21623448,4.821007,-0.3776489,-0.19654752,0.11455713,-0.42933428,3.9386456,-3.160619,-2.055612,3.209751,-0.07494627,-0.93099177,5.563592,-0.74037,3.2133179,0.7084054,-0.48518032,1.3746223,1.0414141,3.4778366,-5.07996,-1.651099,-2.7977214,0.12516953,1.0831734,-3.2196407,-3.884631,-4.344748,0.6890584,-0.4800533,1.162138,0
Jungfraujoch_m202003231300.jpg,-0.46384013,0.06727438,0.41093898,0.40776208,0.36579415,0.2759831,0.6621979,2.388997,-1.5440977,0.04230179,0.7812278,0.786327,-1.2284031,1.7387501,-0.42284465,1.5408995,0.28390643,0.20981151,-0.34115243,0.45666647,-0.10515824,-1.4573103,-1.6639533,-0.63165545,1.024883,0.27947727,-1.4781042,-2.1207705,-2.0978742,-1.5248286,-0.67381394,1.4601914,0
Jungfraujoch_m202003241300.jpg,0.07257976,-0.22679353,-0.91781646,0.8947339,-0.50289935,0.96345747,-0.26132166,-1.4244595,0.16634068,0.41924185,-0.5790255,-0.33776438,0.96453434,-1.1051756,0.9832779,-1.5888406,-0.120891176,-0.31851777,0.2224517,-0.4277047,0.5948554,0.5952368,0.74431455,0.92576885,-0.9707039,-0.17557439,0.75650096,0.9243641,0.4064167,0.869938,1.4307336,0.17000678,0
Jungfraujoch_m202003251300.jpg,-1.3102067,-0.6835403,-1.594524,1.0789452,2.5933714,0.8371891,1.4278533,2.4443593,-1.2903938,2.1620057,1.4398708,-0.17102225,-0.22027557,1.296904,0.44312432,-0.4565038,0.6229849,1.2219346,-0.71157974,0.9967531,-2.374577,0.6578914,-0.07852991,-0.7736574,0.916623,0.5363067,-0.44705832,-1.0171556,-2.1582122,-2.4711585,-0.5242059,2.705444,0
Jungfraujoch_m202003261300.jpg,-0.116310365,-0.29062986,0.15192556,1.078026,0.51910496,0.88218546,0.23540722,0.7524516,-0.43961367,0.16907737,0.44113973,-0.7697891,0.7460567,0.66921484,-0.18337853,0.12913881,-0.037902914,-0.27744696,0.47424394,-0.43999818,0.9456841,-0.24584535,-0.12358327,0.12428452,-0.3812182,-0.49459544,0.29740763,0.053318307,-1.140199,0.33830863,0.917048,1.1229072,0
Jungfraujoch_m202003271300.jpg,-1.9487712,0.47944456,5.501853,-0.5111354,-0.647408,0.031942952,-0.69936574,4.224357,-3.4042063,-2.7929747,3.6056492,-1.0989246,-0.53441167,6.00335,-0.7609373,3.2785063,0.59056187,-1.6042647,1.4788092,0.7826163,4.2599883,-5.281168,-1.0476303,-3.2632675,0.050318614,1.1075852,-2.6049318,-3.4185262,-4.570755,1.7982349,0.54951525,1.4205155,0
Jungfraujoch_m202003281300.jpg,-1.7948583,0.45423758,5.7267895,-0.7537055,-0.93361604,-0.076845884,-1.15085,4.231628,-3.7190084,-2.8818073,3.6681967,0.11207526,-1.0756955,6.427617,-0.48513457,3.5501175,0.66041815,-0.92127997,1.8037124,0.90942866,4.311116,-6.242382,-1.2442179,-3.213568,0.044745624,1.2910112,-3.4133768,-4.2607613,-4.7963276,1.3366296,0.14659819,0.95773214,0
Jungfraujoch_m202003291300.jpg,-0.025804143,-0.08346137,0.70525974,0.6242734,-0.6345777,0.7983762,-0.34884652,-0.23899265,-0.60533154,-0.36772075,0.38084188,-0.04996316,0.3924836,0.6338517,0.50406283,-0.2851382,0.057219572,-0.46633688,0.7041338,-0.17377287,1.5387956,-1.1456271,0.03299874,0.02557826,-0.744758,0.024235558,-0.25967145,-0.34143594,-0.8225565,0.79695934,0.9171278,0.30288473,0
Jungfraujoch_m202003301300.jpg,0.12059578,-0.29924738,-0.71079123,1.0652969,-0.37441665,0.98090667,-0.2253855,-1.0461915,-0.027552795,0.46125063,-0.38693616,-0.05007844,0.91541475,-0.6864363,0.887583,-1.178085,-0.17182158,-0.32830948,0.17352942,-0.29730263,0.62844324,0.29952985,0.5286349,0.75698155,-0.8079062,-0.24625635,0.5127984,0.52805686,0.03676125,0.61489046,1.288705,0.4264537,0
Jungfraujoch_m202003311300.jpg,-1.4909828,0.26479626,5.245326,-0.56840146,-0.7365003,-0.16181043,-1.1584151,3.9766967,-3.4396172,-2.4910893,3.3146281,0.3103156,-1.1929859,5.9162464,-0.41287893,3.1532898,0.7036123,-0.39501992,1.667454,0.8324184,3.7992947,-5.7003083,-1.3833213,-2.8457239,-0.0735091,1.2084616,-3.2772937,-4.051152,-4.5129786,1.0571758,-0.340724,0.84175956,0
Jungfraujoch_m202004011300.jpg,-2.079562,0.74070674,6.8976593,-1.1775959,-1.8133268,-0.48142016,-2.2829642,4.5345697,-4.4229417,-3.9720478,4.2856736,0.9095857,-1.7808887,7.5802875,-0.0020645782,3.7203526,0.923352,-0.5536031,2.7230906,0.6741179,5.2265153,-8.029227,-1.019448,-3.6188495,-0.32811415,1.7585858,-4.015528,-5.0877666,-5.503442,1.8661445,-0.08546455,0.31502363,0
Jungfraujoch_m202004021300.jpg,-2.1026797,0.7577827,6.980745,-1.1954238,-1.8111718,-0.48054692,-2.279003,4.590504,-4.484952,-4.0122414,4.351004,0.8832163,-1.7983693,7.6540856,-0.027816646,3.7774103,0.93417716,-0.5810971,2.7283106,0.6848531,5.2872663,-8.081595,-1.0328565,-3.6701179,-0.3332737,1.8011851,-4.058465,-5.130622,-5.5769963,1.8982296,-0.07962152,0.35339588,0
Jungfraujoch_m202004031300.jpg,-2.1171618,0.75714874,7.030486,-1.2092918,-1.8318794,-0.4994805,-2.332807,4.5970197,-4.5139594,-4.048331,4.3788586,0.94979256,-1.8238599,7.7210093,0.01645846,3.7750905,0.93966717,-0.5472867,2.7751136,0.6949685,5.3297024,-8.17099,-1.0164158,-3.6964424,-0.34715855,1.8097847,-4.097911,-5.1852136,-5.6024776,1.9118912,-0.09862289,0.31829163,0
Jungfraujoch_m202004041300.jpg,-2.125112,0.76818705,7.053873,-1.2017481,-1.8118821,-0.488736,-2.2762055,4.6419444,-4.5104985,-4.0376964,4.390516,0.83280176,-1.7806218,7.718214,-0.047129825,3.808161,0.9475421,-0.6170581,2.7328088,0.70706624,5.3409967,-8.126739,-1.0463547,-3.7054543,-0.33048326,1.8016393,-4.073135,-5.1467733,-5.62281,1.925662,-0.06735468,0.3838656,0
Jungfraujoch_m202004051300.jpg,-2.176997,0.79663455,7.2148514,-1.2471212,-1.878413,-0.51571584,-2.363786,4.698805,-4.6084876,-4.1450925,4.4910145,0.86083907,-1.8139526,7.8690205,-0.01789195,3.8514109,0.970167,-0.62781465,2.8013449,0.70544815,5.4592724,-8.304025,-1.0201169,-3.7690377,-0.35688487,1.8711357,-4.145238,-5.236896,-5.7346005,1.9968907,-0.057695568,0.3666844,0
Jungfraujoch_m202004061300.jpg,-2.118898,0.75573426,7.0669312,-1.1898166,-1.743552,-0.45214146,-2.183841,4.6782584,-4.5156355,-3.985567,4.41526,0.71137106,-1.7376226,7.710759,-0.12014089,3.8333979,0.95040196,-0.66509044,2.6703634,0.7374758,5.3485785,-8.046701,-1.1042743,-3.7108378,-0.31898785,1.7973273,-4.073993,-5.1147428,-5.6519566,1.9181896,-0.050716486,0.47433192,0
Jungfraujoch_m202004071300.jpg,-2.1901398,0.80537784,7.294123,-1.2620131,-1.8857796,-0.51506746,-2.369093,4.742373,-4.6541333,-4.180526,4.5439734,0.84173644,-1.8272904,7.94436,-0.03490577,3.882675,0.98751426,-0.6386641,2.8229852,0.71392894,5.524702,-8.370171,-1.0444204,-3.801969,-0.366192,1.8900619,-4.1857295,-5.2760963,-5.7944994,2.0165603,-0.061286103,0.38536662,0
Jungfraujoch_m202004081300.jpg,-2.1740613,0.8120486,7.304517,-1.2738044,-1.908523,-0.5151207,-2.3883138,4.7221594,-4.6601906,-4.2026396,4.545929,0.89844924,-1.8594428,7.9564276,-0.025324218,3.8839655,0.9968566,-0.6113585,2.8513541,0.6987822,5.5335608,-8.416106,-1.0460514,-3.7927825,-0.36815104,1.905988,-4.2126837,-5.3102,-5.802592,2.006626,-0.0812621,0.347926,0
Jungfraujoch_m202004091300.jpg,-2.1722574,0.79965556,7.2940917,-1.2566398,-1.8750081,-0.50295407,-2.3523903,4.7344813,-4.6545644,-4.176411,4.5418777,0.8674966,-1.8429418,7.952217,-0.039957464,3.8878384,0.9895579,-0.6210531,2.8327172,0.71263885,5.5328126,-8.376419,-1.0733074,-3.7969573,-0.36008933,1.8832349,-4.209221,-5.297523,-5.7966146,1.9946703,-0.085161604,0.37547594,0
Jungfraujoch_m202004101300.jpg,-0.70032275,0.5195821,1.0568347,-0.03205218,-0.30523258,0.022214554,0.12080945,2.2267573,-1.5838923,-0.5999633,0.929293,0.78977096,-1.2878792,1.9565973,-0.040840156,1.5497228,0.3277706,-0.075449154,0.29451257,0.29275203,0.54033846,-2.3954852,-1.3931111,-0.8253225,0.8618808,0.15412654,-1.5058936,-1.8872949,-1.9391954,-1.1675361,-0.4571092,0.89759547,0
Jungfraujoch_m202004111300.jpg,-0.7969341,0.57833993,1.3078359,-0.13909967,-0.43391737,-0.030524133,-0.025548194,2.2590873,-1.662483,-0.7774284,1.0218043,0.77410877,-1.3310692,2.1105375,0.049180575,1.5744028,0.3310641,-0.096139565,0.4565503,0.26014152,0.7277018,-2.6444352,-1.3526882,-0.92422837,0.8002759,0.20764676,-1.5828307,-1.9147704,-1.9980929,-1.0221385,-0.44797686,0.7640792,0
Jungfraujoch_m202004121300.jpg,-1.3775096,-0.35048607,-2.3159628,1.1724634,2.5029788,0.62643015,0.8836833,1.6845537,-0.8616372,2.275372,2.0042517,-0.29316476,0.20439884,1.137465,1.0501089,-1.5513175,1.0504866,1.090915,-0.068301246,0.7563618,-2.1759517,0.4358134,1.1202508,-0.75396043,0.40052566,-0.50512475,0.7195798,0.20708889,-1.9741116,-2.2510664,0.18488854,2.8666084,0
Jungfraujoch_m202004131300.jpg,-1.4581978,-0.15828519,4.2970276,0.08128184,0.4403676,0.30452758,-0.07979599,4.1047645,-2.966237,-1.2690238,3.1098065,-0.3895327,-0.5180457,5.3630066,-0.74441063,2.9374592,0.6320992,-0.4675793,0.9469132,1.2828023,2.7911754,-4.073039,-1.4948232,-2.8218455,0.25920558,0.9129043,-2.9787388,-3.5649467,-4.2525773,0.40998596,-0.36387333,1.6939161,0
Jungfraujoch_m202004141300.jpg,-0.79391074,0.6054292,1.2421272,-0.12237592,-0.4292869,-0.062390573,-0.06429285,2.2262173,-1.6469111,-0.73258007,1.0293326,0.79812276,-1.3147372,2.0387468,0.10089694,1.528678,0.31147894,-0.056704752,0.47357678,0.23454094,0.67451596,-2.604051,-1.2796077,-0.893829,0.78346664,0.1795509,-1.5301808,-1.8163563,-1.9744468,-1.0445044,-0.44558406,0.7845441,0
Jungfraujoch_m202004151300.jpg,-0.72624165,0.54301256,1.2230713,-0.06625957,-0.3310549,0.0039814254,0.12383109,2.322434,-1.6652964,-0.67879957,0.9813348,0.7511952,-1.3222293,2.0458283,-0.06472821,1.6540593,0.3176075,-0.07362072,0.32595238,0.30412862,0.60982466,-2.4846401,-1.465722,-0.8961498,0.8651266,0.25977105,-1.618081,-1.969415,-2.0099669,-1.1295768,-0.5475267,0.8728539,0
Jungfraujoch_m202004161300.jpg,-1.3099415,-0.45581424,-0.7037598,0.6623153,1.9140525,0.9143798,1.0980499,2.388402,-1.6778293,1.5664254,1.8582177,-0.17663151,-0.45023453,1.6822749,0.32483643,-0.0028677285,0.54204804,0.9617517,-0.17304134,0.81313485,-1.3345532,-0.3286888,-0.4693668,-0.94968975,0.6472139,0.5568889,-1.109817,-1.1789534,-2.4105897,-2.107699,-0.49702013,2.3845549,0
Jungfraujoch_m202004171300.jpg,-0.7302443,0.038870245,0.24196616,0.417392,0.8134881,0.3674509,0.7009481,2.2690616,-1.6896474,0.50912285,1.1457477,0.47662684,-0.7138756,1.5596428,-0.083017215,1.270949,0.18441327,0.070619,-0.63187385,0.83559215,-0.38770592,-1.096334,-1.1762348,-0.8222054,0.91037875,0.5280697,-1.4550567,-1.7995882,-2.0485106,-1.6040193,-0.59401125,1.919034,0
Jungfraujoch_m202004181300.jpg,-0.5706312,0.082277164,0.22706187,0.49126247,0.6392728,0.20794289,0.69059205,2.5107343,-1.4399881,0.21197458,0.8102717,0.8905104,-1.1778176,1.8056407,-0.18692395,1.3235714,0.4082476,0.55282855,-0.14261927,0.48985937,-0.42575806,-1.4915049,-1.4639177,-0.6592699,1.1190419,0.21785432,-1.4122143,-2.0708904,-2.13812,-1.7910079,-0.8929899,1.4215298,0
Jungfraujoch_m202004191300.jpg,-1.5172871,-0.32075143,-3.6739354,1.5343498,2.9144468,0.8026575,0.6255724,0.9884924,-0.7133148,3.1683166,2.4530866,-0.40974775,0.63336015,0.57771575,1.7707231,-2.914028,1.4458046,1.4696743,0.111370146,0.71067923,-2.6353066,1.1290839,2.2670517,-0.48367164,-0.22229779,-1.0956564,1.6161777,1.398109,-1.9282506,-2.3856733,0.8881155,3.5302002,0
Jungfraujoch_m202004201300.jpg,-0.7363206,-0.08229087,1.5287565,0.45297894,-0.32904065,0.77806956,-0.07311781,0.73241967,-1.1964148,-0.7641975,1.0877483,-0.9853485,0.43792695,1.5238998,0.15221918,0.39347428,-0.13264011,-1.2183213,0.5733412,-0.10827448,2.0324137,-1.2181197,-0.09289294,-0.80864626,-0.45280617,0.19963747,-0.332726,-0.47837314,-1.4613116,1.2795033,1.1566105,0.8549798,0
Jungfraujoch_m202004211300.jpg,-0.9085144,0.031693146,1.9718859,0.5885971,-0.07777647,0.5964337,-0.049325865,1.5494584,-1.3556135,-1.1602068,1.4587489,-1.2959296,0.2870621,2.1396096,-0.29793558,0.81543565,-0.011826964,-1.1768951,0.8857295,-0.52880895,2.2601774,-1.2561339,-0.21893686,-1.143195,-0.3795691,0.09153465,-0.2510057,-0.5399905,-1.9324081,1.3809454,0.9158287,1.1021231,0
Jungfraujoch_m202004221300.jpg,-0.763273,0.65454316,1.0178332,-0.050584093,-0.3620627,-0.14838222,-0.024027526,2.1966188,-1.48477,-0.6687457,0.8996191,0.8519567,-1.3168911,1.9023147,0.16724265,1.4099634,0.36092025,0.012230486,0.48278546,0.21493599,0.49122393,-2.5046685,-1.2131853,-0.83273196,0.8474714,0.02482362,-1.3396238,-1.6901579,-1.85723,-1.1627431,-0.49663925,0.7751438,0
Jungfraujoch_m202004231300.jpg,-2.2134984,0.85137373,7.4939575,-1.3042332,-1.9118282,-0.59053236,-2.4633083,4.863581,-4.689776,-4.2755914,4.61274,0.9636613,-1.88225,8.147812,0.030923784,3.9050353,1.0757738,-0.4818892,3.0020568,0.7544539,5.5952187,-8.684324,-1.0747781,-3.8601785,-0.3637992,1.9241216,-4.355332,-5.4415464,-5.907173,1.952331,-0.24352187,0.29191718,0
Jungfraujoch_m202004241300.jpg,0.1243804,-0.11568765,-0.9975019,0.8790838,-0.7490269,1.0554553,-0.3178885,-1.9231849,0.21669762,0.2942055,-0.77136254,-0.30273715,1.0753747,-1.3844261,1.2928979,-1.9029677,-0.1550884,-0.46339613,0.27215734,-0.49121535,0.8498851,0.57910377,0.88781404,1.1314301,-1.1267983,-0.14359054,0.89650464,1.0971423,0.58942133,1.1196442,1.7091069,0.00016944855,0
Jungfraujoch_m202004251300.jpg,0.16701789,-0.11485475,-0.78232574,0.7853625,-0.70683855,0.99089813,-0.26751864,-1.7344506,0.20253548,0.2182453,-0.61158377,-0.27696815,0.98149234,-1.197876,1.0989636,-1.6613796,-0.17814265,-0.463269,0.34929976,-0.47449678,0.8251443,0.3879178,0.8049314,0.9833628,-1.0387529,-0.09966834,0.7716815,0.97176105,0.4952294,0.98235923,1.5100248,0.0054673404,0
Jungfraujoch_m202004261300.jpg,-0.9800559,-0.93877774,0.77208424,1.4915495,1.6742364,0.5193734,0.34189475,2.5374944,-1.1568371,1.0642556,1.3750477,-0.3075865,0.40704414,1.93281,-0.08855133,0.9034766,-0.21486539,0.54373646,0.16349874,0.52761304,-0.25354835,-0.025768645,-0.19941774,-1.338653,0.28962404,0.14094038,-1.0230978,-1.1015592,-2.042947,-0.2569857,-0.48683098,1.7399846,0
Jungfraujoch_m202004271300.jpg,-2.1429749,0.8052932,7.291555,-1.3206248,-1.9032997,-0.52455306,-2.3986735,4.700015,-4.568397,-4.1498365,4.5386124,0.8369889,-1.8172804,7.9251785,-0.044988513,3.7504318,1.0870332,-0.5110118,2.8877993,0.72360206,5.4559894,-8.468067,-1.0545409,-3.7075772,-0.39464426,1.9041772,-4.2179008,-5.2706194,-5.78612,1.912901,-0.16021907,0.3194971,0
Jungfraujoch_m202004281300.jpg,-0.60212743,-0.03099529,1.4098132,0.4948669,-0.4459317,0.70485055,-0.23560618,0.5773121,-1.083168,-0.6943932,0.9723492,-0.76541597,0.47635204,1.3141803,0.24891067,0.2966239,-0.1299865,-1.0516933,0.5843571,-0.15016069,1.8831433,-1.2624329,-0.031527244,-0.6294682,-0.5008203,0.19024846,-0.33545905,-0.43255782,-1.3601446,1.1787457,1.03778,0.74360025,0
Jungfraujoch_m202004291300.jpg,0.08470059,-0.2571611,-0.67608726,0.83653814,-0.4346655,0.8321487,-0.23472214,-1.2100651,0.14477204,0.37611598,-0.34925964,-0.2293407,0.8340654,-0.85688865,0.810838,-1.317224,-0.18642864,-0.32532027,0.35435215,-0.43830186,0.51308167,0.45247647,0.6601028,0.7125567,-0.8230409,-0.19910571,0.61108154,0.8319204,0.32764286,0.6470655,1.1210932,0.16537099,0
Jungfraujoch_m202004301300.jpg,0.047052644,-0.12614785,0.26575243,0.7982056,-0.5367394,0.80681586,-0.32351202,-0.5466341,-0.34491244,-0.07538299,0.102666624,-0.08091838,0.6562952,0.14002055,0.6740914,-0.61805594,-0.023649078,-0.39145246,0.55418926,-0.22616562,1.2145765,-0.6551392,0.246485,0.3155802,-0.75614834,-0.07676237,0.040749498,0.020197317,-0.5326862,0.77417374,0.9982904,0.29465786,0
Jungfraujoch_m202005011300.jpg,0.055916224,-0.3232017,-0.70441526,0.7921073,-0.22691728,0.8396209,-0.11110154,-0.8935032,0.10406983,0.4448911,-0.23119473,-0.34538448,0.7501606,-0.6843516,0.52899736,-1.1216345,-0.11302863,-0.22051556,0.31201696,-0.39147806,0.39167207,0.51288366,0.5328665,0.57439214,-0.7537483,-0.20040733,0.5294899,0.7138972,0.23968765,0.48903075,0.987298,0.29187182,0
Jungfraujoch_m202005021300.jpg,-0.02129022,-0.31218353,-0.6858396,0.91433406,-0.38993338,0.8814149,-0.24053524,-1.0798824,0.011405155,0.43375733,-0.39372385,-0.23059791,0.8799161,-0.7694322,0.9208131,-1.2672088,-0.21395202,-0.34781322,0.23199064,-0.32152134,0.55297184,0.400458,0.6127771,0.71693873,-0.7948286,-0.21038133,0.57616496,0.7042787,0.158031,0.70506114,1.271607,0.30056033,0
Jungfraujoch_m202005031300.jpg,-1.6134267,-0.66510946,2.776974,1.4890814,1.5015538,0.08492957,0.031549424,4.5003767,-2.10638,0.0254061,2.364671,-0.2254237,-0.31382197,4.3302374,-0.30261427,1.990879,0.50121564,0.6239116,0.8188059,1.0832998,0.5183782,-1.93991,-0.44550067,-2.7389455,0.44559613,0.8301231,-1.9613122,-2.7335398,-3.703005,0.041484483,-0.97182,1.9919336,0
Jungfraujoch_m202005041300.jpg,-2.0358162,0.81531686,7.02016,-1.2958887,-1.9769459,-0.5173594,-2.396957,4.4631424,-4.457092,-4.0655365,4.393892,0.8543885,-1.8164656,7.601616,-0.039201103,3.6016455,1.0480492,-0.5227304,2.8032026,0.6111301,5.288758,-8.195108,-0.9770285,-3.528078,-0.4372253,1.891093,-4.0257816,-5.0440955,-5.5789523,1.878851,-0.098658204,0.28925562,0
Jungfraujoch_m202005051300.jpg,-0.02735228,-0.2504692,-1.2316203,1.0298847,-0.36946452,0.9914253,-0.22964415,-1.4669614,0.21468773,0.6456471,-0.6342815,-0.3340386,1.0263284,-1.2546768,1.1432049,-1.8173628,-0.096763216,-0.14951523,0.2007342,-0.4053608,0.43605876,0.8354636,0.89017135,1.0044436,-0.93856585,-0.27205098,0.84323686,1.0449623,0.4466975,0.8894116,1.5471586,0.21956967,0
Jungfraujoch_m202005061300.jpg,0.13353963,-0.11322412,-0.9884887,0.8800934,-0.760645,1.0703871,-0.31956,-1.941202,0.22007485,0.28752524,-0.76971585,-0.303222,1.0800874,-1.3948036,1.2960368,-1.9078474,-0.16201574,-0.47031805,0.28272736,-0.49932772,0.8601259,0.5673924,0.8961363,1.136115,-1.1375512,-0.13141671,0.89487934,1.1003054,0.5894278,1.1303654,1.717842,-0.0068536866,0
Jungfraujoch_m202005071300.jpg,-0.92137253,0.7641902,1.4518073,-0.24147157,-0.69582844,-0.20886353,-0.4203999,2.1731877,-1.7195203,-0.97780347,1.2329829,0.850293,-1.3441371,2.241355,0.3242575,1.3766339,0.43347645,-0.03013067,0.8200437,0.10194397,0.9379733,-3.0637527,-1.0433058,-0.9546128,0.61523753,0.10189694,-1.4670713,-1.709625,-2.0999637,-0.85369694,-0.34208542,0.6230491,0
Jungfraujoch_m202005081300.jpg,-0.8627696,-0.122214764,-0.83082736,0.64295435,1.1243291,0.54605955,0.8560686,2.2679174,-1.3771093,0.9368081,1.2245452,0.5160817,-0.91761476,1.5855469,0.123619564,0.30638543,0.61593443,0.88753,0.08392592,0.43595108,-1.0434297,-0.8777941,-0.71087897,-0.5873461,0.83687085,0.020176508,-0.78372854,-1.3136822,-2.087688,-2.175971,-0.40379596,1.9085536,0
Jungfraujoch_m202005091300.jpg,-1.248727,-0.38199195,-0.27855998,1.1796939,2.2342463,0.22545728,0.93413454,3.1219316,-1.3232553,1.2221192,1.7150755,-0.1031368,-0.16610534,2.2405298,0.17290868,0.49581206,0.74177456,1.0755662,0.0063467547,1.0616038,-1.3266821,-0.5456489,0.10329378,-1.4769133,0.80485773,0.368457,-0.5968003,-1.4920437,-2.571797,-1.5188416,-0.742035,2.3634634,0
Jungfraujoch_m202005101300.jpg,-1.1755621,0.14746496,4.4977875,-0.46527767,-0.5133373,0.2796092,-0.64796096,3.2772856,-3.146422,-2.024491,3.2228954,0.16147596,-0.89662415,5.1969385,-0.60219514,2.967636,0.48673147,-0.6642677,1.39188,0.78753865,3.514918,-4.995096,-1.2898605,-2.5219367,-0.029141016,1.0869383,-2.9973366,-3.6311958,-4.119693,0.86641073,0.023197144,0.99341065,0
Jungfraujoch_m202005111300.jpg,-0.8266724,-0.00021302141,1.7675723,0.40804815,-0.47373194,0.63915557,-0.35963812,0.9447121,-1.2425406,-0.932014,1.1882863,-0.80010223,0.3380751,1.7780674,0.21328852,0.46129075,-0.07283868,-1.0609723,0.7744348,-0.13272701,2.08501,-1.5538628,0.01862479,-0.917967,-0.47087172,0.23614366,-0.47362745,-0.6176518,-1.5787524,1.3135489,1.0652596,0.7495877,0
Jungfraujoch_m202005121300.jpg,-0.03184915,-0.21202321,-1.3861761,1.0274727,-0.47032982,0.9682487,-0.23298123,-1.4750614,0.2627837,0.66182595,-0.83017087,-0.41457933,1.1070648,-1.3645695,1.1863158,-1.8996956,-0.07253515,-0.19635636,0.08857146,-0.30985302,0.43615156,0.84109235,0.86478853,1.156822,-0.91624266,-0.34940034,0.97535473,1.0888362,0.5737976,0.8668413,1.71626,0.2603546,0
Jungfraujoch_m202005131300.jpg,-0.42250347,-0.30413777,0.23821844,0.70278186,-0.13449162,0.927291,-0.0044138003,0.0046348274,-0.6070233,0.066800416,0.4527183,-0.6314835,0.6507436,0.44069052,0.42403644,-0.35406184,-0.23132071,-0.7084293,0.29139662,-0.14971465,1.0984735,-0.3029837,0.12983087,-0.07442557,-0.45938262,-0.12542266,0.05496873,0.0627088,-0.7097165,0.74348843,1.196145,0.7242758,0
Jungfraujoch_m202005151300.jpg,-0.27138746,-0.17690548,0.31547672,0.57858205,-0.4382962,0.7444807,-0.2839509,-0.17035037,-0.55739844,-0.060417935,0.36916,-0.30205858,0.43272144,0.5177803,0.59362966,-0.61526334,0.16442488,-0.27782002,0.59513605,-0.10811711,1.1390729,-0.7408888,0.15598851,0.11417718,-0.6739799,-0.036677506,-0.07918817,-0.097294986,-0.743591,0.65917957,1.0030577,0.38072783,0
Jungfraujoch_m202005161300.jpg,-0.58309066,-0.5499433,0.036580175,1.027127,0.3576396,0.7689819,0.03490968,0.56374437,-0.5749111,0.47711125,0.4060697,-0.5372515,0.57894236,0.5287211,0.4265367,-0.37681517,-0.1260459,-0.10084064,0.31375697,0.033860072,0.33159107,0.12933114,0.3201431,-0.32194382,-0.39988703,0.09165765,-0.028114706,-0.060373932,-0.771591,0.44865704,0.6376658,0.87880665,0
Jungfraujoch_m202005171300.jpg,-2.0354998,0.7750471,6.897144,-1.3222644,-2.0075276,-0.56721115,-2.5572412,4.3542404,-4.432386,-4.0857134,4.321273,1.2009,-1.9744546,7.597758,0.16432737,3.4853568,1.0541668,-0.2548145,2.9799798,0.5896917,5.217481,-8.332758,-0.8381821,-3.5061326,-0.46744654,1.8967497,-4.076528,-5.1629343,-5.4957333,1.8612804,-0.177619,0.04817898,0
Jungfraujoch_m202005181300.jpg,-2.279673,0.8677158,7.5836205,-1.3791363,-2.041305,-0.65252733,-2.6516128,4.8326535,-4.747373,-4.397583,4.6896825,1.0770856,-1.9290776,8.260578,0.1469935,3.837157,1.0822325,-0.42006242,3.1505468,0.6848382,5.6738753,-8.903916,-0.9729404,-3.862007,-0.41134888,1.9548223,-4.3777223,-5.4782896,-5.954024,2.009897,-0.2359213,0.17084342,0
Jungfraujoch_m202005191300.jpg,-2.2971835,0.8491313,7.566907,-1.3639883,-2.0086865,-0.6698637,-2.6861987,4.846533,-4.79463,-4.3788786,4.678647,1.2263626,-2.0232596,8.269224,0.23109102,3.85,1.0564903,-0.3093932,3.1958327,0.69812536,5.642116,-8.925954,-0.96853095,-3.8942409,-0.40416744,1.984676,-4.4643106,-5.5498714,-5.947925,1.9803843,-0.32572353,0.12010443,0
Jungfraujoch_m202005201300.jpg,-0.23235753,-0.5187533,0.520451,0.9849146,0.1694732,0.73391485,-0.12507859,0.7677306,-0.6988492,0.37972602,0.6954385,-0.0043048193,0.45543304,1.0918572,0.15558723,0.20792773,-0.063464165,-0.05822003,0.50266206,0.045746565,0.6913574,-0.6981045,-0.0899174,-0.29920945,-0.3089134,-0.19369072,-0.4463892,-0.5377227,-1.192215,0.06045399,0.49170357,0.8701042,0
Jungfraujoch_m202005211300.jpg,-1.0857387,0.771442,1.9239196,-0.36379933,-0.8385688,-0.25110993,-0.609848,2.3735576,-1.9468596,-1.2420278,1.4223228,0.8363002,-1.435873,2.6202133,0.38403538,1.5171757,0.43513012,-0.023895815,1.0326161,0.11535989,1.2592082,-3.4637406,-1.0900472,-1.1763191,0.52471626,0.2700858,-1.7271898,-1.938199,-2.2938793,-0.64414024,-0.39706618,0.49677232,0
Jungfraujoch_m202005221300.jpg,-1.6839983,-0.91474295,-2.0969357,1.9579518,3.4516568,0.84041077,1.2920828,2.9645615,-1.0664487,2.9383872,1.9316653,-0.20216891,0.12801196,1.4151561,0.8221306,-1.0609509,0.7075222,2.2329683,0.10415462,0.65846765,-3.1276531,1.2259191,1.1152923,-1.0067829,0.7855288,0.2620039,0.052782923,-0.40810975,-2.621672,-2.3613296,-0.47331876,3.0508027,0
Jungfraujoch_m202005231300.jpg,-1.7234278,-0.23701715,-3.418963,1.5088345,2.8966076,0.60845786,0.609805,1.0801988,-0.64264786,3.067923,2.2165525,-0.21462898,0.5602785,0.4015458,1.9351583,-2.684971,1.0327314,1.4951154,0.21712364,0.44468093,-2.733539,1.1885853,2.2487597,-0.500741,0.1600606,-1.0811282,1.4747031,1.4420407,-1.7730047,-2.2903662,0.7335444,3.1665225,0
Jungfraujoch_m202005241300.jpg,-1.9144,0.75537366,6.750776,-1.226882,-1.834471,-0.41216877,-2.1526818,4.364697,-4.3318725,-3.858073,4.266019,0.74115866,-1.7881072,7.330741,-0.16397619,3.553416,1.0050622,-0.5067525,2.6910257,0.60118735,5.096016,-7.8468504,-1.0873209,-3.4097648,-0.40030116,1.8314987,-3.940348,-4.8873706,-5.4151564,1.7178127,-0.1339966,0.3608334,0
Jungfraujoch_m202005251300.jpg,-0.98801064,0.8008045,1.5167791,-0.27551788,-0.7917081,-0.27175233,-0.53805107,2.1661353,-1.7435234,-1.0641247,1.2600911,0.9020289,-1.4100547,2.3134465,0.43938854,1.311639,0.46760774,0.0014529824,0.9693985,0.06300028,1.015605,-3.2039711,-1.0045788,-1.0004736,0.5615689,0.057458445,-1.4668674,-1.6799288,-2.092117,-0.8191955,-0.35658973,0.5289887,0
Jungfraujoch_m202005261300.jpg,-1.0331833,-0.24173383,-0.60906154,0.9325917,1.5709672,0.44508085,0.82744163,2.553639,-1.4235275,1.2477627,1.4011889,0.3631614,-0.60146606,1.5961356,0.2022012,0.453389,0.46214637,0.9710775,-0.09950872,0.6064663,-1.3564157,-0.44701302,-0.37077272,-0.8483693,0.862851,0.29643223,-0.8498533,-1.2660403,-2.2723193,-1.9574946,-0.58124864,2.1573248,0
Jungfraujoch_m202005271300.jpg,-1.1124005,0.77125466,2.0382812,-0.4014416,-0.882043,-0.24883959,-0.63823605,2.4251034,-1.9855232,-1.314404,1.426795,0.84093577,-1.4598168,2.70172,0.37654036,1.5732796,0.42995948,-0.030257106,1.0551151,0.12609047,1.3275001,-3.5553532,-1.127253,-1.2120533,0.5274795,0.3227557,-1.8034198,-2.025516,-2.3243525,-0.6015977,-0.40448976,0.44928783,0
Jungfraujoch_m202005281300.jpg,-1.8014094,-0.77733254,-2.8311312,1.9061745,3.5024962,0.82240975,1.2241286,2.6292112,-0.8752885,3.1363623,1.977533,-0.2224999,0.08902843,1.2520285,1.2706387,-1.9065273,1.0460026,2.3203301,0.18893671,0.5959312,-3.5407379,1.402859,1.576914,-0.84807545,0.67448926,-0.052893363,0.75561255,0.151862,-2.4102316,-2.7588708,-0.17066588,3.166897,0
Jungfraujoch_m202005291300.jpg,-0.9764163,0.7141523,1.5791326,-0.26796415,-0.65025914,-0.20616578,-0.32602328,2.3170087,-1.7331631,-1.028229,1.1095815,0.80845225,-1.4249284,2.295107,0.29279703,1.4795412,0.39368165,-0.015031189,0.77368516,0.15394738,0.8994926,-3.0236406,-1.20382,-1.0099523,0.71320635,0.21518436,-1.5831151,-1.859272,-2.0683017,-0.86060625,-0.46114013,0.5361979,0
Jungfraujoch_m202005301300.jpg,0.15178004,-0.11579901,-0.8136431,0.8039584,-0.7203844,1.0059265,-0.28311598,-1.7643996,0.19903076,0.2377302,-0.6293932,-0.28427082,0.999304,-1.2312325,1.1352768,-1.7044929,-0.18354279,-0.4616846,0.3501102,-0.4779088,0.8360385,0.41811708,0.82290536,1.0130562,-1.054742,-0.10963036,0.78075534,1.0025305,0.5101749,1.0068913,1.5514078,0.009558616,0
Jungfraujoch_m202005311300.jpg,-0.63593435,-0.7827313,0.43728274,1.1131613,1.0874289,0.56623334,0.1952124,1.6739966,-0.82024395,0.8757031,0.9819049,-0.46245763,0.39616317,1.2007033,-0.15184462,0.4094926,-0.117897265,0.32954636,0.07857172,0.27476287,-0.1250569,0.055351127,-0.15311168,-0.7283597,-0.0027024597,0.112023145,-0.6399815,-0.62396467,-1.479059,-0.1062054,-0.12845472,1.3809403,0
Jungfraujoch_m202006011300.jpg,-0.8936664,0.68632007,1.3770305,-0.14928028,-0.4768311,-0.24574262,-0.057048827,2.4097831,-1.4732015,-0.9423793,0.77425015,0.7929641,-1.4606056,2.1685572,0.20201924,1.4959013,0.43224713,0.019614428,0.6612968,0.14399627,0.62347376,-2.7501354,-1.4167695,-0.923517,0.9405669,0.0072601065,-1.4191014,-1.8383737,-1.9053043,-1.0938185,-0.6183126,0.4825843,0
Jungfraujoch_m202006021300.jpg,-0.98958546,0.6445155,1.6045716,-0.24406745,-0.4966899,-0.2142386,-0.17936918,2.4416032,-1.6583979,-0.96306,0.9611945,0.7469976,-1.44781,2.2880695,0.25587428,1.5299082,0.3699266,0.059127934,0.7220652,0.19945863,0.80423105,-2.872203,-1.395853,-1.0325592,0.80610514,0.16773516,-1.6404138,-1.9005889,-1.9982411,-0.94822323,-0.61736214,0.49037513,0
Jungfraujoch_m202006031300.jpg,-1.7910805,-1.0345318,-1.222221,1.7906551,3.4375486,0.62930477,1.5007259,3.5387995,-1.5522779,2.5189786,1.8426026,-0.19434309,-0.20054115,1.8692464,0.52986974,-0.06278074,0.48737085,1.8557941,-0.39690915,1.1488141,-2.801228,0.9845489,0.25589472,-1.5002806,1.0689712,0.80942357,-0.76511204,-1.3633654,-2.8562942,-2.1607604,-1.1258816,3.0377831,0
Jungfraujoch_m202006041300.jpg,-0.5362883,-0.05591663,1.1843138,0.43856332,-0.44568756,0.7844235,-0.13661684,0.4051322,-0.96356606,-0.6925758,0.8606327,-0.76617765,0.39364767,1.1377634,0.21513823,0.1636236,-0.14480367,-1.0287877,0.61267066,-0.2015922,1.8303814,-1.1444067,0.020053208,-0.5492005,-0.51632994,0.15391861,-0.21696231,-0.3482053,-1.1729842,1.1795135,1.1433393,0.66328335,0
Jungfraujoch_m202006051300.jpg,-0.17950366,-0.2888822,0.5056191,0.63166785,-0.16448665,0.83376414,-0.12673786,0.11993936,-0.61814725,0.06881006,0.5141391,-0.31385112,0.5313947,0.5865467,0.23804593,-0.072379775,-0.14323492,-0.5015726,0.33419952,-0.008190095,1.1353506,-0.6676041,-0.024318814,-0.093608625,-0.51356405,-0.07118561,-0.28753403,-0.23128907,-0.81945074,0.54170185,0.8937625,0.7082244,0
Jungfraujoch_m202006061300.jpg,-0.68422925,-0.78103906,-1.7765276,1.9135228,1.8398262,0.80738145,0.44175282,1.5397482,-0.24229665,2.0361977,0.6659322,-0.5235282,0.7898627,0.35043645,0.34389555,-1.0275695,0.5246136,1.2966199,0.10632242,0.42963386,-1.3512523,0.97967154,1.035034,-0.12657984,-0.21808237,-0.47742108,0.5783857,0.14398026,-1.3395393,-0.5662486,0.6633471,2.172993,0
Jungfraujoch_m202006071300.jpg,0.16592608,-0.09190368,-0.9343091,0.8598902,-0.78352743,1.0628922,-0.321949,-1.9484873,0.2204746,0.2427462,-0.75276697,-0.29686457,1.0786966,-1.3779155,1.2736714,-1.8738706,-0.15986943,-0.49603805,0.29988813,-0.50409544,0.90159136,0.50039715,0.88269717,1.1249725,-1.1512802,-0.11978094,0.8838713,1.0860522,0.5758236,1.1305184,1.6950588,-0.011745985,0
Jungfraujoch_m202006081300.jpg,-0.025257211,-0.21358132,-1.1826179,0.9340748,-0.54611284,1.0096009,-0.2769302,-1.7192851,0.21993954,0.52227336,-0.7348635,-0.32192075,1.0651685,-1.3207259,1.2865033,-1.9429913,-0.14274564,-0.32817945,0.17056744,-0.4221052,0.6010042,0.80668485,0.873933,1.0982857,-0.98526365,-0.2734384,0.8985318,1.1114066,0.5814616,0.95300037,1.6853905,0.11576993,0
Jungfraujoch_m202006091300.jpg,0.11138092,-0.29941183,-0.56305087,1.0990558,-0.3018619,0.9391004,-0.26366946,-0.90702456,-0.06185643,0.45707202,-0.26979092,0.0044459254,0.89912665,-0.50816685,0.901412,-1.1008949,-0.15333387,-0.20628105,0.29794475,-0.29421747,0.6314407,0.19379918,0.5377219,0.68419725,-0.79672396,-0.23953733,0.4334328,0.47173244,-0.113147646,0.57047945,1.1611767,0.4248072,0
Jungfraujoch_m202006101300.jpg,-0.10861339,-0.19318447,-1.6874491,1.0780832,-0.40920278,0.9325512,-0.20011103,-1.4625583,0.24051516,0.828909,-0.8472972,-0.462894,1.1627045,-1.4535952,1.2612262,-2.0347223,0.0024355967,-0.14024189,0.017128294,-0.19318505,0.3960348,0.93714434,0.91004634,1.1920644,-0.9122495,-0.5131626,1.0607224,1.179484,0.63272023,0.8235939,1.8292509,0.4112811,0
Jungfraujoch_m202006111300.jpg,-1.3844838,-0.32905272,3.1494515,0.65974003,0.6833337,0.035312984,-0.31575575,3.8707566,-2.2140949,-0.5996149,2.3823862,-0.2769842,-0.42440048,4.1653457,-0.38940743,2.0697117,0.4703387,0.26549274,0.8892263,0.7832529,1.3602386,-2.78991,-0.8474859,-2.2838302,0.24501938,0.7510224,-2.1155741,-2.631478,-3.5521662,0.2503386,-0.7080003,1.4783624,0
Jungfraujoch_m202006121300.jpg,-0.7599806,-0.07356158,1.5936971,0.43010584,-0.38236016,0.78184056,-0.15011087,0.944757,-1.2675171,-0.8496387,1.1708441,-0.83400303,0.27681518,1.7113646,0.06658686,0.5586399,-0.13239382,-1.1088166,0.6852003,-0.13309161,2.0177264,-1.4074985,-0.08522096,-0.89815867,-0.40332863,0.23936124,-0.4591347,-0.6582562,-1.5591153,1.2181783,1.1248273,0.8356394,0
Jungfraujoch_m202006131300.jpg,-0.734293,-0.7819264,0.3832031,1.1056693,1.0817112,0.7045617,0.4249152,1.595108,-0.83344024,0.6355191,0.89750767,-0.6596814,0.51738656,1.3260555,-0.2091757,0.5344923,-0.19782853,-0.106985435,0.08205427,0.24613614,0.2249447,0.064116985,-0.11590846,-0.81407505,0.09563709,-0.06281579,-0.36336756,-0.6386167,-1.4358516,0.15339242,0.35801715,1.39154,0
Jungfraujoch_m202006141300.jpg,0.12919484,-0.11509263,-0.99456835,0.87951183,-0.75815487,1.0708171,-0.31797454,-1.9404328,0.22176231,0.29081804,-0.7741812,-0.30554128,1.0791363,-1.3971312,1.2998456,-1.9144675,-0.16235372,-0.46731582,0.27931923,-0.49636865,0.8561998,0.57303536,0.89549387,1.1378744,-1.1354618,-0.13312247,0.89665633,1.1010662,0.5934302,1.1300029,1.7212774,-0.0071098506,0
Jungfraujoch_m202006151300.jpg,0.054153055,-0.15394393,-1.0346419,0.8617507,-0.6781318,1.0106755,-0.29290992,-1.8030008,0.20492993,0.34429353,-0.77254677,-0.32426968,1.0210133,-1.3344015,1.2701019,-1.8892219,-0.1444857,-0.3988516,0.22628807,-0.44072238,0.74676,0.65613616,0.8512771,1.0904962,-1.0589613,-0.1520547,0.8785695,1.059958,0.5983002,1.060735,1.6648905,0.017081872,0
Jungfraujoch_m202006161300.jpg,-1.6122257,-0.8947003,1.7760394,1.9546863,2.3290222,0.24934451,0.3522252,4.370836,-1.6983777,1.0061502,2.0218081,-0.1945323,0.009411108,3.3479183,-0.08353389,1.5391191,0.16308926,1.3100479,0.6039152,0.92439383,-0.6003048,-0.6668393,-0.0962971,-2.3871887,0.6159161,0.8229614,-1.7665756,-2.1415727,-3.2630248,-0.362243,-1.2736562,2.140727,0
Jungfraujoch_m202006171300.jpg,0.15448464,-0.10111939,-0.97359365,0.87580323,-0.77872634,1.0722302,-0.326526,-1.9604228,0.21986139,0.26714996,-0.76914835,-0.30129793,1.0856934,-1.398709,1.2916808,-1.9004748,-0.15641488,-0.4844233,0.29321778,-0.5069212,0.88915896,0.5397187,0.8968891,1.1404388,-1.1576558,-0.12952492,0.89944,1.1047345,0.5851086,1.1414877,1.7189729,-0.009580964,0
Jungfraujoch_m202006181300.jpg,-0.900726,-1.0882599,-0.97093123,1.9925113,2.1097105,0.9663482,0.4471748,1.9126892,-0.45876452,2.105865,0.98211783,-0.43302852,0.7255228,0.8924285,0.30051792,-0.7454141,0.33275783,1.5801796,0.27469355,0.33451712,-1.5245392,1.1439458,1.0333444,-0.5129432,-0.12317354,0.1744715,-0.056270838,-0.23519152,-1.7461175,-0.47405538,0.24791884,1.9426224,0
Jungfraujoch_m202006191300.jpg,0.29872662,-0.34670955,-0.9279033,1.1121469,0.17573157,1.0263907,0.0038979016,-0.59225386,0.35835806,0.5310494,-0.429774,-0.716469,0.9926987,-0.73735255,0.17501724,-1.0917046,0.047754895,0.007341504,0.38589206,-0.863249,0.30459243,0.7694447,0.46627498,1.0594997,-0.8547686,-0.54897404,1.0834742,1.0314589,-0.10371211,0.39948642,1.2257212,0.55728287,0
Jungfraujoch_m202006201300.jpg,0.0030885488,-0.2189548,-1.1367832,0.8669112,-0.45341876,0.87475485,-0.24416588,-1.3540145,0.22135544,0.52310973,-0.6835945,-0.38816538,0.93335646,-1.1968364,1.0126109,-1.67697,-0.0796695,-0.1918206,0.13198629,-0.31345528,0.4681677,0.7167235,0.74698323,0.9784196,-0.91203856,-0.27335843,0.8259327,0.9683623,0.50791633,0.8396398,1.48115,0.1970926,0
Jungfraujoch_m202006211300.jpg,-0.11676777,-0.22791739,-1.4347346,0.9897191,-0.45187452,1.0132663,-0.24244657,-1.6945555,0.22857428,0.70524395,-0.7491618,-0.38321984,1.1411633,-1.3892802,1.3805487,-2.0979302,-0.10373536,-0.26993152,0.1267375,-0.35518515,0.5051233,0.89197004,0.9416645,1.1798428,-0.950463,-0.4235764,1.0077868,1.2254264,0.577555,0.8758075,1.83168,0.2572018,0
Jungfraujoch_m202006221300.jpg,-0.04519614,-0.19911799,-0.15126118,0.7002852,-0.47048882,0.8674183,-0.16646713,-0.7041616,-0.24375339,0.09796658,-0.083145306,-0.37564045,0.66725075,-0.21487066,0.6776634,-0.930381,-0.014392156,-0.38594133,0.4054577,-0.20228809,0.9481019,-0.16492368,0.30065358,0.40169886,-0.8201271,-0.044761784,0.25124133,0.3176692,-0.17560083,0.71270144,1.1007928,0.31599864,0
Jungfraujoch_m202006231300.jpg,-1.031252,0.80999184,1.6072304,-0.3421191,-0.83451563,-0.23781571,-0.60879636,2.130389,-1.8339164,-1.0748426,1.4133314,0.86102784,-1.383547,2.3685918,0.45450577,1.3193321,0.43220225,-0.07999787,0.9793646,0.066338554,1.1594479,-3.296387,-1.0010064,-1.0472763,0.48250228,0.038681865,-1.5359746,-1.637736,-2.1598787,-0.76250213,-0.27668998,0.5982828,0
Jungfraujoch_m202006241300.jpg,-2.0627658,0.7607291,7.0560656,-1.1842562,-1.7156751,-0.52765036,-2.2283106,4.5986886,-4.341748,-3.9090757,4.378479,0.641696,-1.580976,7.634717,-0.051785983,3.6036177,1.0367837,-0.49261355,2.822659,0.7879148,5.2949247,-8.123868,-1.0389938,-3.5906594,-0.3860191,1.7316456,-4.035527,-4.983979,-5.5638056,1.8308655,-0.20478633,0.4034953,0
Jungfraujoch_m202006251300.jpg,-0.06274479,-0.25176075,-1.229551,0.9385747,-0.43259865,0.942065,-0.2491757,-1.4971484,0.20509969,0.61181754,-0.68568265,-0.3410721,1.0131886,-1.2364155,1.1701775,-1.8328091,-0.10880986,-0.22324799,0.13950959,-0.3562283,0.4703949,0.84469956,0.82519805,1.0262175,-0.9105216,-0.32181567,0.85731894,1.0589778,0.54036516,0.84019643,1.585133,0.19753487,0
Jungfraujoch_m202006261300.jpg,-2.0414746,0.7349119,6.8234386,-1.0908946,-1.6205168,-0.5068229,-2.1079652,4.58546,-4.1714964,-3.7659948,4.179197,0.6068436,-1.507378,7.430096,-0.05829014,3.5621848,0.97245497,-0.49949133,2.7310255,0.7858563,5.0920925,-7.8640265,-1.0741625,-3.5214298,-0.28644776,1.5802733,-3.9184773,-4.8442607,-5.3651347,1.7024807,-0.22013895,0.4154744,0
Jungfraujoch_m202006271300.jpg,-0.26739404,-0.35316676,-1.2776251,0.9871204,-0.095501445,0.8917279,-0.12321487,-0.9210886,0.033598058,0.8623385,-0.33307758,-0.47470748,0.96663725,-0.8969589,0.988743,-1.6108288,-0.056367815,-0.109609246,0.1348949,-0.22547634,0.21469404,0.73638266,0.75978446,0.82077,-0.7104961,-0.45276538,0.78298384,0.96086055,0.14888304,0.5184886,1.4893732,0.5975903,0
Jungfraujoch_m202006281300.jpg,-0.73712987,-0.80243754,-1.1832088,1.561728,1.2132823,0.6071384,0.10781413,0.9378018,-0.21744616,1.5744106,0.27235895,-0.39853826,0.774016,0.06779499,0.5379247,-0.8056877,-0.008966573,0.76584303,0.08472008,0.14989087,-0.8645913,1.0459529,0.78027254,-0.014330164,-0.15194975,-0.43976873,0.36247873,0.32246274,-0.7654134,-0.061275564,0.6223661,1.3713062,0
Jungfraujoch_m202006291300.jpg,-1.2742707,0.04155083,4.1374464,-0.11953909,-0.2704862,-0.013673818,-0.60825366,3.6008174,-2.7084832,-1.5216527,2.7386494,-0.29703385,-0.7114132,4.6752987,-0.60945046,2.542446,0.67181647,-0.3705516,1.0351458,0.8233531,2.4578252,-4.1041193,-1.1570122,-2.2908578,0.097937405,1.184027,-2.556529,-3.152455,-3.9163058,0.6577138,-0.3820742,1.1347203,0
Jungfraujoch_m202006301300.jpg,-1.2735603,0.80785733,2.6005795,-0.5865091,-1.1423489,-0.29954755,-0.9954079,2.557721,-2.2248065,-1.6540964,1.6924708,0.9448387,-1.5399306,3.1887097,0.48150387,1.7010283,0.4658482,-0.055381745,1.3250896,0.10005461,1.7744539,-4.1943407,-1.1074004,-1.3913611,0.40137056,0.41822445,-2.0785165,-2.2936327,-2.6202161,-0.3459844,-0.3345637,0.27933222,0
Jungfraujoch_m202007011300.jpg,-1.3319588,-1.0847719,-1.1599103,1.844734,3.2759907,0.7388366,1.4003795,3.3431084,-1.2422183,2.4808748,1.8592795,-0.31412184,-0.027439546,1.9392627,0.090986215,-0.12030099,0.8802058,1.9908223,-0.23618539,1.0899768,-2.6490903,0.84644485,0.31093007,-1.288331,0.7395814,0.7295893,-0.6337189,-1.3723869,-2.9118083,-2.0143707,-1.0379391,2.894504,0
Jungfraujoch_m202007021300.jpg,-1.7142326,-0.082080014,4.720877,0.24408501,0.36217317,0.02192436,-0.6006138,4.326678,-2.981365,-1.4098427,3.3601053,-0.31932408,-0.3556451,5.627977,-0.39776084,2.7468474,0.6722677,-0.15301803,1.3692617,1.1389766,2.7543101,-4.3929234,-0.95032203,-2.9691536,0.16780709,1.0999674,-2.9793959,-3.5346913,-4.5191064,0.7799282,-0.54243547,1.4872369,0
Jungfraujoch_m202007031300.jpg,-1.8447515,0.67469966,6.376148,-1.0221734,-1.5508324,-0.48507163,-2.13021,4.2600937,-4.044192,-3.6135798,3.9938166,1.0621917,-1.714432,7.067067,0.076043084,3.35777,0.9604111,-0.074076906,2.8250704,0.6510303,4.760397,-7.663319,-0.91917074,-3.3423152,-0.33163476,1.6882179,-3.9119956,-4.8761873,-5.126856,1.5642257,-0.43771124,0.15014811,0
Jungfraujoch_m202007041300.jpg,-2.4835312,0.94406575,7.931855,-1.4976392,-2.1039944,-0.700127,-2.7890248,5.0810137,-4.9620113,-4.607934,4.9130945,0.98292893,-1.9232315,8.597716,0.17820394,4.0085855,1.1016977,-0.53602624,3.2007713,0.76282394,5.930983,-9.251509,-0.89201045,-4.090555,-0.42871016,2.0790155,-4.5064692,-5.6524262,-6.198575,2.233368,-0.11021686,0.23105882,0
Jungfraujoch_m202007051300.jpg,-1.424773,0.78219014,3.1171844,-0.68917555,-1.2161033,-0.3144382,-1.1527851,2.8255181,-2.4702568,-1.8989546,1.8972303,0.8959326,-1.5595299,3.6160336,0.4598572,1.9251145,0.45816553,-0.09396684,1.4136416,0.16666943,2.0858076,-4.555434,-1.1568918,-1.6166289,0.3497029,0.64272285,-2.363432,-2.6093092,-2.8903124,-0.110028915,-0.35848778,0.24084455,0
Jungfraujoch_m202007061300.jpg,-2.4543586,0.93406284,7.9715314,-1.4922569,-2.0428958,-0.7207015,-2.7463717,5.0645576,-4.824681,-4.581617,4.8862514,0.96067274,-1.838144,8.649236,0.17055503,3.9597354,1.1903243,-0.4901488,3.2673378,0.82271266,5.9211774,-9.339062,-0.9240062,-4.0795135,-0.38458225,1.9783751,-4.5189505,-5.680993,-6.1887417,2.1804721,-0.19549786,0.14361432,0
Jungfraujoch_m202007071300.jpg,-1.4039824,0.76310915,3.10715,-0.6643019,-1.1748492,-0.2890118,-1.0729302,2.8579724,-2.4613967,-1.8747894,1.8676689,0.8401187,-1.551794,3.5945277,0.4013359,1.9576623,0.44528928,-0.11099612,1.3685012,0.18054664,2.0636585,-4.476057,-1.2196364,-1.615771,0.3748161,0.6546805,-2.3674104,-2.6146338,-2.877111,-0.13170779,-0.38512048,0.27520004,0
Jungfraujoch_m202007081300.jpg,-1.4001791,0.74503165,3.1136136,-0.6542832,-1.1170554,-0.2741793,-1.0364771,2.8917465,-2.4925568,-1.8322792,1.9058762,0.8012172,-1.5321096,3.592308,0.37027413,1.9926746,0.4314683,-0.101142615,1.334477,0.2189298,2.0675697,-4.4482427,-1.2462535,-1.6337972,0.36641484,0.6796546,-2.4092963,-2.6270328,-2.911896,-0.13053057,-0.4124668,0.33959097,0
Jungfraujoch_m202007091300.jpg,-1.1720233,0.07729071,1.7290678,0.5454258,0.51829165,-0.25499105,-0.12510507,3.191656,-1.7150115,-0.29263008,1.2890159,0.3947932,-0.9235504,2.556786,0.07865714,1.6283364,0.31521153,0.6605682,0.61112434,0.36991322,0.1194562,-1.9804052,-0.8027425,-1.4077379,0.71369386,0.643816,-1.6050365,-1.9875381,-2.5921345,-0.5716737,-1.0236633,1.0319355,0
Jungfraujoch_m202007101300.jpg,-1.5062397,-0.80430394,1.9428983,1.812428,2.3423803,0.3134016,0.5165909,4.5418916,-1.9576375,1.0367955,2.293959,-0.3302074,-0.06105518,3.527573,-0.3247122,1.8014519,0.4226325,1.2965006,0.43868726,1.2463145,-0.48904693,-0.9502544,-0.33251005,-2.4844785,0.54754233,1.0837475,-2.0965774,-2.445615,-3.608139,-0.47622102,-1.4001219,2.411896,0
Jungfraujoch_m202007111300.jpg,-0.4228857,-0.63140666,-0.689393,1.3664515,0.6558,0.73056906,-0.055419203,0.35829306,-0.16380234,1.0336287,0.038586367,-0.18955351,0.694684,-0.03334759,0.6871206,-0.9301872,-0.072946176,0.62048846,0.30506933,-0.06779368,-0.39137715,0.75755304,0.8093022,0.15919404,-0.4390243,0.0066699404,0.29124302,0.25604755,-0.56257,0.24650416,0.68533003,0.8658682,0
Jungfraujoch_m202007121300.jpg,-1.2422677,0.7427408,2.763775,-0.5183391,-1.0135193,-0.28083903,-0.834526,2.7430258,-2.2692912,-1.6441338,1.6781169,0.79968834,-1.5058053,3.2492197,0.3179873,1.8926286,0.4337574,-0.052443415,1.2417741,0.1719073,1.7771465,-4.0879498,-1.2833753,-1.4547946,0.45591092,0.5633345,-2.2077675,-2.4269717,-2.7051716,-0.3129897,-0.5096605,0.34291154,0
Jungfraujoch_m202007131300.jpg,-0.3587851,-0.4470029,0.9060227,0.8150339,0.16664386,0.53242326,-0.09173548,1.1505669,-0.8971064,0.10041725,0.86396736,-0.15952568,0.2544061,1.4414842,-0.031197058,0.50079685,0.0125961425,-0.21238711,0.4629342,0.18154584,0.86528575,-0.96249145,-0.33567312,-0.5840373,-0.23285636,-0.10270224,-0.60787183,-0.77769554,-1.3907844,0.0881983,0.26999342,0.9941138,0
Jungfraujoch_m202007141300.jpg,-1.082495,-0.311736,2.3184018,0.8657182,0.6446653,0.017872341,-0.3020128,2.9306343,-1.5775225,-0.40974802,1.8355627,-0.30870464,0.012203857,3.0622354,-0.2625943,1.5249448,0.15219933,-0.017498463,0.8054478,0.32186475,1.1917967,-1.9183793,-0.5327891,-1.708281,0.17216475,0.18420655,-1.3444812,-1.7006159,-2.607972,0.29994875,-0.4912898,1.3159844,0
Jungfraujoch_m202007151300.jpg,0.0052587315,-0.20499322,-1.1147621,0.89688283,-0.56716883,0.98869485,-0.27876428,-1.6716745,0.21423821,0.46698552,-0.7347148,-0.3158674,1.007446,-1.2892954,1.2219381,-1.8600004,-0.1399689,-0.31294456,0.19417474,-0.42592555,0.6181997,0.7497518,0.8301264,1.0711569,-0.98428154,-0.23921406,0.860456,1.0631636,0.5692715,0.9585199,1.6278672,0.08086585,0
Jungfraujoch_m202007161300.jpg,0.12503754,-0.11627647,-0.99578905,0.87808007,-0.75406945,1.0629126,-0.31739974,-1.9299446,0.21770254,0.29230574,-0.77214396,-0.30621055,1.0762684,-1.3896382,1.2950528,-1.9082658,-0.15853174,-0.46609896,0.27401227,-0.49296996,0.8514392,0.57859343,0.8906892,1.132742,-1.1308205,-0.1359209,0.8958746,1.0980728,0.5926102,1.1246057,1.7145823,-0.0035948753,0
Jungfraujoch_m202007171300.jpg,-0.31879747,-0.179693,1.2091136,0.31261212,-0.45945,0.8074435,-0.19747308,0.35957393,-1.0264192,-0.46376193,0.94839936,-0.34768686,0.22169714,1.4045849,0.19091159,0.08029476,0.19169101,-0.43557262,0.80157447,0.012623567,1.7044635,-1.4817749,-0.2197559,-0.40169382,-0.6346502,0.24834414,-0.6815951,-0.72835225,-1.3058217,0.65470034,0.7791254,0.47065765,0
Jungfraujoch_m202007181300.jpg,-1.1993003,0.61636937,2.5549974,-0.5205909,-0.9636673,-0.1610518,-0.7726446,2.5810924,-2.1221857,-1.4795566,1.4222031,0.87350607,-1.4900078,3.0446315,0.31324726,1.793596,0.35805047,-0.10418949,0.98819494,0.21125993,1.5876393,-3.774236,-1.3592055,-1.3273791,0.52505517,0.49813727,-2.1909754,-2.413728,-2.446969,-0.42508256,-0.41445988,0.2924224,0
Jungfraujoch_m202007191300.jpg,-1.3856287,0.70383054,3.1404433,-0.63243604,-1.1124057,-0.24588037,-0.96873677,2.9351811,-2.4116442,-1.8293,1.7849619,0.7278041,-1.5226207,3.5789332,0.2832135,2.0411055,0.4041501,-0.1862385,1.2546985,0.2017895,2.024941,-4.325992,-1.3577499,-1.6229393,0.43051863,0.62207335,-2.375107,-2.6124563,-2.8359175,-0.15696241,-0.40222514,0.3140932,0
Jungfraujoch_m202007201300.jpg,-1.3769809,0.71573806,3.2110014,-0.6520678,-1.0832224,-0.26489443,-0.95078176,2.9976912,-2.444575,-1.8830596,1.8706523,0.72084486,-1.5651987,3.6954923,0.24079636,2.091052,0.47104898,-0.17025095,1.2935373,0.2448325,2.0802364,-4.4386506,-1.373611,-1.6867352,0.42372528,0.6474464,-2.4074721,-2.7014453,-2.9353027,-0.14165652,-0.44830674,0.33633256,0
Jungfraujoch_m202007211300.jpg,-1.5107832,-1.2452993,0.12688223,2.622027,3.069933,0.6732248,0.68240494,4.3153753,-1.1981314,2.169972,1.7117434,-0.29021555,0.25832307,2.508349,-0.077927075,0.54662395,0.44100058,2.2848604,0.4340629,0.81318676,-2.0862005,0.7333611,0.86217916,-1.7939053,0.4912113,0.9289066,-0.96013844,-1.5891068,-3.1732306,-0.75207645,-0.78200793,2.6777425,0
Jungfraujoch_m202007221300.jpg,-1.5331521,-1.0537974,0.42903292,2.592849,3.0668952,0.3721919,0.7532761,4.5412264,-1.430402,1.9049084,1.7601343,-0.010712655,0.17807782,2.7115664,-0.02217665,1.2452567,0.20959663,1.8205707,0.21695223,0.9949748,-1.7295073,0.35645634,0.1564723,-2.1052651,0.8225179,0.5634797,-1.3527828,-1.8945992,-3.1242094,-1.035692,-1.3823162,2.7565727,0
Jungfraujoch_m202007231300.jpg,-1.1931363,0.6156702,2.5497253,-0.4731725,-0.80993456,-0.17292593,-0.55271083,2.7217095,-2.0165396,-1.3906629,1.3508899,0.6018273,-1.4001611,2.96143,0.16914985,1.8765464,0.33987734,-0.1614642,0.9055926,0.2181443,1.4412094,-3.5711288,-1.5026243,-1.3287544,0.6393539,0.44891387,-2.108095,-2.2870436,-2.4237359,-0.51749194,-0.5240717,0.36721376,0
Jungfraujoch_m202007241300.jpg,0.15064797,-0.10592955,-0.9761062,0.87699896,-0.77200055,1.0761784,-0.32412058,-1.9557008,0.2216936,0.2758427,-0.76343584,-0.29835352,1.0848426,-1.3954504,1.2901675,-1.8997464,-0.16217096,-0.4793683,0.2976856,-0.5092394,0.8813431,0.54364866,0.8977507,1.1390271,-1.1511741,-0.13447863,0.8952569,1.1063217,0.58433336,1.1324055,1.7193377,-0.0088327825,0
Jungfraujoch_m202007251300.jpg,-1.0445845,0.7351034,1.8499234,-0.37967917,-0.8873205,-0.26367188,-0.5209429,2.3192697,-1.6458267,-1.2841622,1.0613236,0.8641107,-1.50776,2.5610282,0.35926986,1.4479829,0.48782116,-0.08333629,1.0310537,0.03891696,1.1424825,-3.4162576,-1.2658131,-1.0369517,0.69847906,-0.008017026,-1.5591909,-1.9083583,-2.0943713,-0.7635426,-0.35295984,0.24299416,0
Jungfraujoch_m202007261300.jpg,-0.56523085,-0.28238568,1.6880231,0.7471214,-0.0054501723,0.31307667,-0.2402078,1.8018715,-1.0920558,-0.36397654,1.1616877,-0.30490905,-0.05266241,2.0327766,-0.21849544,0.8571677,0.2018167,-0.031358108,0.8625852,0.053380135,1.0574126,-1.5312216,-0.3741232,-1.0025835,-0.16241139,0.24609712,-0.91959876,-1.1551428,-1.8996117,0.4615488,-0.036523744,0.76079303,0
Jungfraujoch_m202007271300.jpg,-1.3214468,0.6748417,3.0123734,-0.55688375,-0.9847483,-0.2430084,-0.73219824,3.0008357,-2.2832239,-1.7650282,1.7110934,0.5383682,-1.4934499,3.5144968,0.084278375,2.0922856,0.45047492,-0.27625877,1.1392968,0.22100943,1.8696406,-4.079043,-1.4443374,-1.6249433,0.5290858,0.5518695,-2.2097929,-2.5386176,-2.7987156,-0.23544994,-0.44177854,0.41633928,0
Jungfraujoch_m202007281300.jpg,-1.5052093,-0.7674927,1.9638753,2.1290452,2.405559,0.111554235,0.5204382,4.5493855,-1.5500479,0.71204066,2.074525,-0.1296562,-0.05790876,3.711944,-0.26018035,1.7380369,0.43871054,1.26852,0.8048468,0.95054233,-0.41639084,-0.9376024,-0.11607368,-2.6410522,0.74374497,0.6698728,-1.6842232,-2.4296582,-3.4738066,-0.21047926,-1.4448618,2.0675237,0
Jungfraujoch_m202007291300.jpg,-1.0222187,0.4650314,2.0584476,-0.28106076,-0.4456528,-0.1089763,-0.28184488,2.6655505,-1.9202901,-1.1182376,1.2842255,0.8382833,-1.5229193,2.8240232,0.08517239,1.8167067,0.3724115,0.094809994,0.8053742,0.31868547,1.1549978,-3.2079978,-1.4796443,-1.313068,0.6975187,0.3752049,-2.0352082,-2.387408,-2.3285813,-0.7345045,-0.6678834,0.5145399,0
Jungfraujoch_m202007301300.jpg,-1.447137,-0.69810283,0.273437,1.4157418,2.500413,0.47426468,1.0942065,3.710987,-1.6019108,1.4970247,1.6877041,-0.24891317,-0.16748607,2.330287,0.014958583,0.9570619,0.37466168,1.3000183,-0.22348297,1.0626252,-1.6827443,-0.12035754,-0.32491407,-1.5685265,1.0017464,1.0357467,-1.3424766,-1.8799754,-2.9490921,-1.5396597,-1.1875436,2.4300835,0
Jungfraujoch_m202007311300.jpg,-1.3533224,0.6126237,3.1685057,-0.5371782,-0.9233806,-0.17020929,-0.8401442,3.0862918,-2.4011824,-1.7336235,1.9274536,0.5527859,-1.3912243,3.7537498,0.096997656,2.141501,0.46548656,-0.25373492,1.2180061,0.36437836,2.072302,-4.3159733,-1.3354863,-1.7593998,0.40692568,0.5647996,-2.3468015,-2.670118,-2.954366,-0.13427138,-0.33661208,0.53540796,0
Jungfraujoch_m202008011300.jpg,-1.8314073,-1.3454468,-0.8119825,3.1096535,3.4642663,0.72081053,0.6936233,4.362675,-0.93838406,2.6444001,1.7129536,-0.35654128,0.5155679,2.4637437,0.32679823,-0.17866525,0.5995777,2.3154247,0.48470315,0.666994,-2.5431423,1.2971948,1.2357907,-1.737408,0.5466346,0.088693134,-0.2212069,-0.9993988,-2.9944568,-1.1395248,-0.4208138,3.0945978,0
Jungfraujoch_m202008021300.jpg,-1.4506559,-1.0633492,1.0836686,2.3297024,3.20251,0.2876983,1.0577208,4.9813147,-1.6949311,1.4819831,2.0117927,-0.004079869,-0.3878317,3.5661268,-0.48366675,1.5756228,0.8519003,2.0218873,0.08431841,1.2923894,-1.7049297,-0.08607817,-0.01491148,-2.4383502,0.9139129,1.3591838,-1.6188112,-2.8895614,-3.959489,-0.8647993,-1.5889617,2.7023034,0
Jungfraujoch_m202008031300.jpg,0.13981824,-0.15692222,-0.68954694,0.7347726,-0.6116276,0.922693,-0.22492597,-1.5120591,0.1703428,0.23700283,-0.49383965,-0.27215847,0.8905711,-1.0344818,0.94199264,-1.480195,-0.18230508,-0.41845804,0.35824272,-0.4371481,0.7223893,0.3625772,0.723616,0.8483093,-0.9368888,-0.09713669,0.6726256,0.87595105,0.43632668,0.8367553,1.3428363,0.04481758,0
Jungfraujoch_m202008041300.jpg,-0.1153891,-0.31013614,-1.6731652,1.2172635,-0.1881033,1.0133495,-0.13314916,-1.1656483,0.3230022,0.9988134,-0.7377075,-0.47310236,1.2219813,-1.3412664,1.0389386,-1.799823,-0.09242585,-0.081845105,0.016030544,-0.31000447,0.06802109,0.9848904,0.9162075,1.2357826,-0.7102283,-0.57317185,1.0743662,1.1582605,0.35569203,0.59949785,1.8046771,0.5584126,0
Jungfraujoch_m202008051300.jpg,-1.1840031,0.8090678,2.444028,-0.47058916,-1.0749121,-0.28311908,-0.8483484,2.550064,-2.1267476,-1.5622966,1.628776,0.81236327,-1.4909064,3.039343,0.3531714,1.7059171,0.45134342,-0.14303441,1.2456654,0.070593074,1.7095509,-3.93645,-1.169098,-1.3721652,0.40645078,0.28353566,-1.9234815,-2.1174407,-2.5170143,-0.397287,-0.33386493,0.41411707,0
Jungfraujoch_m202008061300.jpg,-1.3781073,0.77329665,3.0568595,-0.60837185,-1.1912098,-0.30935937,-1.0289423,2.8893135,-2.3675764,-1.8893394,1.7896408,0.7973428,-1.5595456,3.5871406,0.35109186,1.9522246,0.4795266,-0.14872143,1.4004142,0.13591401,2.0296073,-4.4176598,-1.2405211,-1.6172619,0.40144122,0.5373406,-2.24126,-2.5435493,-2.816728,-0.16176918,-0.36572552,0.26178342,0
Jungfraujoch_m202008071300.jpg,-1.458347,0.7527289,3.3868737,-0.6674558,-1.232345,-0.30532944,-1.1031793,3.0579522,-2.5337272,-2.0296764,1.9341502,0.7545335,-1.5673347,3.8598714,0.31385362,2.1102238,0.47832313,-0.18737984,1.4424901,0.18283053,2.23161,-4.641581,-1.3016083,-1.7510227,0.374998,0.67932904,-2.4344583,-2.7474778,-3.0083115,-0.033338707,-0.38952848,0.26184186,0
Jungfraujoch_m202008081300.jpg,-1.4792536,0.7180249,3.5638766,-0.6865427,-1.242617,-0.28987193,-1.1109343,3.1579823,-2.6093578,-2.0929358,1.9690156,0.7331539,-1.5884563,3.9877262,0.25917864,2.2282426,0.45734623,-0.21562582,1.434215,0.20905554,2.3185852,-4.7163134,-1.3809471,-1.8137269,0.38218927,0.7599838,-2.5481918,-2.875082,-3.0894015,0.021597639,-0.41903037,0.25538686,0
Jungfraujoch_m202008091300.jpg,-1.4503808,0.6978353,3.571146,-0.6678895,-1.2138636,-0.27810848,-1.0328419,3.190731,-2.5564446,-2.0953457,1.9020948,0.69533604,-1.6000838,3.9929762,0.18675664,2.2696607,0.46554905,-0.2637266,1.3815653,0.22121885,2.3,-4.6582503,-1.4735568,-1.8118575,0.43306363,0.7153999,-2.5287328,-2.899228,-3.0641618,-0.008582532,-0.43339106,0.2584595,0
Jungfraujoch_m202008101300.jpg,-1.5341737,-0.9173859,1.7034318,2.08002,2.1992571,0.4275432,0.35090345,4.4635634,-1.818614,1.0845021,2.2555752,-0.36187813,-0.056431476,3.4838977,-0.28816992,1.4353719,0.4759276,1.348319,0.6462091,0.7953234,-0.6847234,-0.6728799,-0.06621202,-2.270324,0.47115275,0.93657714,-1.6670028,-2.155621,-3.6474257,-0.4051759,-1.0894859,2.3564312,0
Jungfraujoch_m202008111300.jpg,-0.7540298,0.36061722,1.5230422,0.12300422,0.08481641,-0.0926388,0.47843722,2.8733544,-1.4977889,-0.56740755,0.8157818,0.2541598,-1.1862444,2.2027621,-0.40557402,1.9864362,0.35975325,-0.06776144,0.14569819,0.47655636,0.34470117,-2.127861,-1.8315496,-1.0905914,1.0521928,0.29668593,-1.6438073,-2.069253,-2.1202202,-1.149155,-0.96638715,0.95920944,0
Jungfraujoch_m202008121300.jpg,-1.7838854,-1.0910118,0.38038602,2.0910234,3.0205603,0.6671679,0.98037344,4.4461937,-1.6613784,1.949611,2.1392324,-0.50044143,-0.15668015,2.9366455,-0.048850562,0.6632921,0.7062814,1.9529182,0.27167687,0.92708695,-2.1290317,0.28339276,0.28167686,-1.9539478,0.7720926,1.2132574,-1.2470071,-1.8626142,-3.6063063,-1.2958734,-1.1190822,2.7343876,0
Jungfraujoch_m202008131300.jpg,-1.7275834,-1.070734,0.5770314,2.096653,2.8742738,0.71100134,0.90473443,4.4338536,-1.6914029,1.854098,2.251995,-0.6488221,-0.058142237,3.0178506,-0.17725316,0.69344395,0.7730528,1.8956549,0.38820702,0.9013951,-1.8731437,0.14428826,0.36176136,-1.9720097,0.61490023,1.2704903,-1.2709532,-1.8567514,-3.6967483,-1.0464652,-0.97681355,2.7373154,0
Jungfraujoch_m202008141300.jpg,-0.17724985,-0.24196172,-1.7047113,1.0489795,-0.332931,1.0018954,-0.19476935,-1.5523744,0.2082004,0.91990554,-0.6979926,-0.44014668,1.1810277,-1.4251662,1.3556672,-2.128662,-0.04606664,-0.18084428,0.076360695,-0.24327107,0.37664264,0.922193,0.97451395,1.2062571,-0.9026559,-0.58084214,1.0610384,1.2792863,0.5342352,0.74284697,1.9157617,0.4709677,0
Jungfraujoch_m202008151300.jpg,-1.3646604,0.65731245,3.542241,-0.6377806,-1.175451,-0.20982473,-0.88087904,3.2399888,-2.4251862,-2.050339,1.7737886,0.59751576,-1.5877717,3.9628172,-0.016907535,2.381611,0.47104615,-0.34697735,1.3034624,0.21650407,2.2629943,-4.5536504,-1.6203942,-1.7613337,0.5200813,0.5924727,-2.4787898,-2.886588,-3.0163321,-0.06419763,-0.36470297,0.26892382,0
Jungfraujoch_m202008161300.jpg,-1.459491,-1.1151419,-0.45853186,1.5900297,2.9884467,0.7959846,1.4660375,3.6992304,-1.6675262,1.9960954,1.8273726,-0.26981184,-0.42586273,2.3726869,-0.13931507,0.47940534,0.63650125,1.7720091,-0.26797172,0.9385094,-2.1615446,0.47078982,-0.3998925,-1.4391077,0.94524366,1.0013126,-1.1947622,-1.9114926,-3.1776056,-1.9160165,-1.189054,2.7029889,0
Jungfraujoch_m202008171300.jpg,-1.6187341,-0.9001015,2.093836,2.0872872,2.2489963,0.5332458,0.46091276,4.53005,-1.7753124,0.8459868,2.3630416,-0.49199626,0.13083085,3.8094773,-0.34248024,1.6598563,0.31619275,1.0014753,0.7445225,0.88934,-0.20637532,-0.91265607,-0.1993289,-2.6000535,0.5269764,0.7549652,-1.8222884,-2.2772808,-3.6374533,-0.18354905,-1.0230048,2.325635,0
Jungfraujoch_m202008181300.jpg,-1.5450718,-0.94589806,-0.54654753,1.5932201,2.8264432,0.7327572,1.2448208,3.506431,-1.403404,2.0659554,1.7512618,-0.4681716,-0.1670329,2.0541563,0.13005608,0.18848966,0.57733005,1.6383414,-0.08410582,0.8492818,-2.328509,0.49610633,0.09938283,-1.3247634,0.90113235,0.85915756,-0.77703047,-1.350977,-2.884722,-1.8180056,-0.8538437,2.5770788,0
Jungfraujoch_m202008191300.jpg,-0.87744796,-0.19699523,0.58793914,1.0703378,1.2827108,-0.22211404,0.7403859,3.1439817,-1.2756323,0.4500212,0.78854454,0.37486264,-0.98492426,1.9319572,-0.23286971,1.3971963,0.49035352,0.77716756,-0.21226461,0.4504469,-1.2124845,-0.48974615,-1.0166937,-1.0584432,1.2205606,0.5958522,-1.034152,-1.8725042,-2.4274561,-1.3328985,-1.4084799,1.4851382,0
Jungfraujoch_m202008201300.jpg,-1.506553,0.69062203,4.0662208,-0.7423613,-1.328592,-0.25587922,-1.1070894,3.4341106,-2.6958256,-2.3651645,2.1175191,0.5930798,-1.6470639,4.489563,0.010846689,2.5168183,0.5626628,-0.4090938,1.5401026,0.24505647,2.6920104,-5.096595,-1.5739114,-1.9967396,0.4074008,0.73536867,-2.6802955,-3.1595912,-3.387021,0.19608694,-0.3187296,0.2498939,0
Jungfraujoch_m202008211300.jpg,-1.465544,0.58338666,4.0470896,-0.6668859,-1.1549972,-0.19920824,-1.0215068,3.521496,-2.6945484,-2.2231472,2.2413218,0.39497024,-1.5047143,4.554693,-0.15924957,2.5457134,0.6097171,-0.40669122,1.4777133,0.39485192,2.6756923,-4.9663954,-1.4591427,-2.075241,0.32393607,0.78470427,-2.6322482,-3.140892,-3.4636106,0.27785495,-0.24447086,0.46033326,0
Jungfraujoch_m202008221300.jpg,-0.9044854,-0.3457767,2.1998987,1.015815,1.0923679,0.20271666,0.33202928,3.9199138,-2.092398,-0.15036444,1.9218231,0.28563657,-0.54414994,3.760192,-0.64121705,2.3446069,0.5015716,0.498605,0.4049232,0.8796552,0.79539454,-2.2690876,-1.4378312,-1.9587818,0.6269409,0.46091217,-2.1563828,-2.9365952,-3.3513067,-0.7451376,-1.104746,1.8448488,0
Jungfraujoch_m202008231300.jpg,-1.1649022,0.36090425,3.1772623,-0.29814106,-0.69357985,-0.20172238,-0.6331351,3.278607,-2.1937206,-1.6533117,1.5981705,0.734335,-1.6537137,3.8315277,-0.12720364,2.257826,0.5471047,0.08728132,1.2647355,0.3136569,1.7868612,-4.0059614,-1.6023815,-1.7227697,0.54043,0.5588583,-2.3769255,-2.9322994,-2.9484358,-0.2459473,-0.70437604,0.32706365,0
Jungfraujoch_m202008241300.jpg,-0.60685736,0.102092914,1.7239087,0.18673469,0.22852,0.15530124,0.5498379,2.9180453,-1.6043265,-0.42749286,1.0677468,0.15275286,-1.1761765,2.4872508,-0.7209546,2.0750985,0.48638114,-0.0054095387,0.09081298,0.6301081,0.40798724,-2.0892844,-1.8392528,-1.1484162,0.88560975,0.5784761,-1.8418874,-2.3310568,-2.426691,-1.0498714,-0.90179515,1.1171818,0
Jungfraujoch_m202008251300.jpg,-1.7257041,-1.1366172,-0.42481375,1.7517664,3.1330442,0.97815084,1.3351731,3.8905206,-1.7285572,2.2268305,2.193857,-0.6268633,-0.20838057,2.651672,0.069212586,0.10379389,0.91269076,1.9248877,0.086459294,1.0711085,-2.2485392,0.48242792,0.26999095,-1.6726563,0.6310269,1.130209,-0.9896062,-1.6316867,-3.4193063,-1.7583295,-0.7339184,2.9515252,0
Jungfraujoch_m202008261300.jpg,-1.1240491,0.40177158,3.6396933,-0.3695125,-0.56975377,-0.06889604,-0.28942353,3.5490127,-2.355112,-1.7100788,2.065072,-0.17624736,-1.1074476,4.17308,-0.7701653,2.7191424,0.6760374,-0.6648222,0.82319057,0.68969274,2.1619,-3.9856844,-1.5983003,-1.9741061,0.5097234,0.78849167,-2.2892125,-2.950755,-3.3637426,0.08736768,-0.26842296,0.98546535,0
Jungfraujoch_m202008271300.jpg,-1.4584339,-0.8973738,1.5108653,1.7327485,2.3889906,0.496155,0.6871889,4.222039,-1.850532,1.1478645,2.286936,-0.45683965,-0.07500596,3.3835182,-0.37149027,1.4200673,0.56843024,1.2154733,0.32296842,0.97810394,-0.7237127,-0.6566447,-0.30966347,-2.1406183,0.5919467,0.9727082,-1.6913842,-2.2418504,-3.6417243,-0.6752547,-1.0805455,2.4326828,0
Jungfraujoch_m202008281300.jpg,-0.7476474,-0.20437355,-2.103354,1.0304205,0.5412617,0.77081025,0.0015739575,-0.44540882,-0.34923518,1.5442603,0.5967613,-0.484227,0.9632069,-0.5113265,1.2550215,-1.8417308,0.3154171,0.069414824,0.11963232,0.14421749,-0.23657027,0.53946584,1.1268651,0.5177132,-0.52451104,-1.0591185,0.985673,1.2382877,-0.51868147,-0.2589348,1.6949929,1.6318307,0
Jungfraujoch_m202008291300.jpg,-0.048695162,-0.35171437,-1.1201556,1.0525416,-0.3810396,1.0604475,-0.33325315,-1.526689,0.23605183,0.69175595,-0.5958533,-0.20976803,1.0825541,-1.145087,1.2608566,-1.8716545,-0.20655763,-0.20022056,0.21148914,-0.48897654,0.3542293,0.83242303,0.9115647,1.0757514,-0.8895803,-0.30620074,0.8493756,1.0754701,0.38703907,0.7547698,1.588712,0.17968369,0
Jungfraujoch_m202008301300.jpg,0.16411498,-0.0891991,-0.9639914,0.8738357,-0.7938591,1.0724149,-0.32888263,-1.9745555,0.21944027,0.24859135,-0.7746922,-0.30432746,1.092317,-1.4031526,1.297331,-1.9044961,-0.15164137,-0.49842227,0.29552364,-0.5063893,0.9127209,0.52132076,0.895592,1.1434698,-1.170745,-0.12526737,0.9044994,1.1055872,0.588427,1.1521189,1.7222927,-0.010280637,0
Jungfraujoch_m202008311300.jpg,-2.0973475,0.7426481,7.0127745,-1.2374111,-1.7538948,-0.5632245,-2.4179912,4.5665035,-4.4653816,-4.0185494,4.3756905,1.1278158,-1.857462,7.755714,0.13955666,3.6397629,1.0141741,-0.24315593,2.955075,0.7352144,5.2959404,-8.32684,-0.92417306,-3.6675558,-0.38321006,1.8270231,-4.191611,-5.274897,-5.579383,1.854581,-0.2694171,0.17458528,0
Jungfraujoch_m202009011300.jpg,-2.0299845,0.82243145,7.048715,-1.2046771,-1.9006497,-0.5851407,-2.4334486,4.558303,-4.4182873,-4.101009,4.3460855,1.1025052,-1.8578453,7.7250266,0.06644484,3.6814022,1.0584139,-0.36114144,2.9100058,0.6666021,5.2406516,-8.314343,-0.938676,-3.6314685,-0.37610257,1.8711171,-4.106525,-5.2309275,-5.59257,1.835457,-0.2689797,0.17767456,0
Jungfraujoch_m202009021300.jpg,-0.90531963,0.6885856,2.0030212,-0.29456735,-0.73878443,-0.24567556,-0.27471682,2.554069,-1.6398987,-1.2798185,0.9563013,0.7931375,-1.5418452,2.584754,0.06852133,1.7807848,0.44322833,-0.06957024,0.865446,0.090055496,1.0941712,-3.2626038,-1.5775242,-1.0607446,0.83600366,0.11231105,-1.7202907,-2.120004,-2.1663575,-0.81831175,-0.5994041,0.3070267,0
Jungfraujoch_m202009031300.jpg,-1.2900463,0.69296956,2.8380609,-0.50332665,-1.004332,-0.24128766,-0.8355448,2.8529625,-2.2305777,-1.6633059,1.6482449,0.71463066,-1.4419053,3.3636725,0.2419508,1.9590745,0.4038038,-0.16371518,1.2094322,0.18638957,1.8132719,-4.065402,-1.2604988,-1.5285755,0.48191118,0.48433226,-2.143015,-2.434817,-2.686109,-0.26354134,-0.3482411,0.376614,0
Jungfraujoch_m202009041300.jpg,-1.1363239,0.6232249,2.6835654,-0.37197304,-0.840615,-0.15385038,-0.39957654,2.9499125,-2.0959208,-1.5309653,1.4254752,0.44172648,-1.4358206,3.1714115,-0.12907532,2.1601367,0.37406835,-0.37906033,0.8840505,0.19987905,1.6315281,-3.575455,-1.6328615,-1.4466181,0.6696969,0.39417332,-2.030018,-2.3747368,-2.6080513,-0.42342094,-0.40664157,0.5742634,0
Jungfraujoch_m202009051300.jpg,-1.0688967,0.6131385,2.7698848,-0.45079494,-0.8321204,-0.1923206,-0.47546768,2.8273234,-2.042495,-1.6442441,1.2654744,0.8450451,-1.6512461,3.202259,0.06248163,2.1177537,0.37907857,-0.14031878,0.9929962,0.16200383,1.6727767,-3.8018677,-1.8029842,-1.386907,0.73010594,0.39047125,-2.2521448,-2.6539547,-2.5312505,-0.5106589,-0.68949014,0.2209416,0
Jungfraujoch_m202009071300.jpg,-2.148163,0.5633122,6.5211153,-0.72811425,-1.1652365,-0.4262741,-1.722408,4.8586593,-3.9076447,-3.2836585,3.7714658,0.33102787,-1.1943947,7.1125546,-0.13367175,3.6767502,0.7414556,-0.60279506,2.3174534,0.8898033,4.5309634,-7.018787,-1.2213858,-3.5439367,0.03613352,1.3786032,-3.774104,-4.5848017,-5.0994596,1.4517298,-0.29697272,0.64916974,0
Jungfraujoch_m202009081300.jpg,-1.4814787,0.72531104,3.8137574,-0.66473097,-1.2876151,-0.2770269,-1.0273452,3.3459263,-2.621833,-2.2444625,1.9345148,0.5950898,-1.5770502,4.1527495,0.05037521,2.5075355,0.41578585,-0.46092469,1.3584085,0.20888324,2.5002441,-4.75111,-1.554439,-1.9081306,0.4705375,0.7092992,-2.567691,-2.9764135,-3.1719944,0.13871115,-0.32245204,0.3130737,0
Jungfraujoch_m202009091300.jpg,-1.5473725,0.71524197,3.9850926,-0.6825481,-1.2914456,-0.27149117,-1.0898638,3.4491913,-2.738894,-2.304742,2.0832458,0.54828477,-1.5518845,4.330792,0.042677477,2.576763,0.41877508,-0.4823912,1.4106631,0.2480987,2.6364758,-4.8896427,-1.5108993,-2.019226,0.41976368,0.78293353,-2.6489358,-3.057482,-3.305612,0.24365044,-0.2887834,0.3653469,0
Jungfraujoch_m202009101300.jpg,-0.89532006,-0.57139593,0.238232,0.8274482,1.5384673,0.6700638,1.2084298,2.864328,-1.6451416,0.9463905,1.3614581,-0.11868995,-0.8055794,2.0064611,-0.5061535,1.1376421,0.48018548,0.553589,-0.5598132,0.69456136,-1.0565674,-0.38294536,-1.4032784,-0.97959155,0.9749804,0.7977247,-1.4266083,-1.9929732,-2.6791313,-1.6888931,-0.96254015,2.0410643,0
Jungfraujoch_m202009111300.jpg,-1.0972419,-0.25894892,1.4294062,0.5924635,0.9739224,0.14809918,0.68253714,3.532078,-1.8503022,-0.028062984,1.4094356,0.12378478,-1.1719106,2.9116244,-0.4718136,1.7646327,0.52996,0.55569434,0.076117896,0.6844228,-0.20354223,-1.6131598,-1.4667726,-1.4884858,0.9930677,0.8008747,-1.7371348,-2.5406501,-2.98482,-1.1009458,-1.0696838,1.5475057,0
Jungfraujoch_m202009121300.jpg,-0.9736248,0.43359417,2.6090524,-0.20591784,-0.348687,0.047084536,0.14480263,3.0507133,-1.996825,-1.1516886,1.4486262,-0.012720734,-1.1686411,3.0174446,-0.5448043,2.374629,0.36181796,-0.53168297,0.4287564,0.48325637,1.3605351,-3.0391045,-1.8896642,-1.4513447,0.8033667,0.5667399,-2.099134,-2.416483,-2.7086992,-0.5346213,-0.56874347,0.9446075,0
Jungfraujoch_m202009131300.jpg,-1.1495371,-0.29548198,1.4620316,0.2644982,0.8815566,0.68001395,0.74213845,2.9029055,-2.0524852,0.27870846,1.9823223,-0.69040895,-0.59891576,2.6296973,-0.5538482,1.4896622,0.41465732,-0.06197293,-0.035864145,0.6744995,0.2896288,-1.511939,-1.4385412,-1.3190494,0.5779692,0.7495894,-1.787907,-1.8546119,-2.976483,-0.95670545,-0.43109876,1.8883253,0
Jungfraujoch_m202009141300.jpg,-1.4344523,-1.0629604,-0.37025276,1.9284673,3.0567505,0.4784885,1.1653166,3.751919,-1.0949979,1.9945618,1.4519691,-0.38455775,-0.02245287,2.1543598,-0.0835184,0.47073984,0.6166624,1.7118392,-0.19831836,0.72647315,-2.4936457,0.80627394,0.07748339,-1.3784692,1.0162883,0.7015618,-0.6260471,-1.460562,-2.9101598,-1.6162645,-1.1951065,2.4469938,0
Jungfraujoch_m202009151300.jpg,-1.03744,0.27166063,2.871375,-0.19887587,-0.4049902,0.029858578,-0.08869625,3.3114717,-2.1794891,-1.2668984,1.6343875,0.13601527,-1.2562442,3.5306253,-0.6096693,2.4636667,0.45261917,-0.4037363,0.5888938,0.4512381,1.5497694,-3.3663259,-1.8538129,-1.5568573,0.7178495,0.55030143,-2.179397,-2.7097418,-3.0345125,-0.4487267,-0.46563274,0.96508604,0
Jungfraujoch_m202009161300.jpg,-1.290727,-0.61862206,1.6890025,0.71498555,1.4005667,0.5518893,0.64071196,3.478838,-1.9434974,0.57468426,2.050017,-0.66062295,-0.33992946,3.0584722,-0.5616899,1.5730305,0.48210818,0.28671438,-0.037652873,0.9532307,-0.11018972,-1.3159592,-1.0012414,-1.6228746,0.6565315,0.88381726,-1.7643752,-2.1419299,-3.2835183,-0.78826076,-0.5762947,2.0564444,0
Jungfraujoch_m202009171300.jpg,-1.8195583,-0.6590321,1.955456,1.1218145,1.8084893,0.58277875,0.43635395,4.2061,-2.100517,0.642852,2.3678591,-0.6870675,-0.12134941,3.6535819,-0.21450776,1.4395711,0.4544043,0.72433954,0.41642237,1.015961,-0.15723181,-1.3553638,-0.40930215,-2.2061148,0.5748807,1.0491059,-1.892929,-2.2285655,-3.5312529,-0.597777,-0.61512065,2.2716188,0
Jungfraujoch_m202009181300.jpg,-1.1082251,-0.41803703,2.0995197,0.3375637,0.8623363,0.600685,0.47166678,3.3310704,-2.2243237,-0.06712952,2.282078,-0.45630297,-0.6594826,3.4660406,-0.79842305,1.8244474,0.63116723,0.14423949,0.23134941,0.812498,0.7521304,-2.1544003,-1.2923145,-1.6824658,0.4296873,0.9336533,-2.0662105,-2.5525112,-3.476564,-0.53994787,-0.4398916,1.8431244,0
Jungfraujoch_m202009191300.jpg,-0.14871475,-0.34665912,-0.17729875,0.8284596,-0.19198483,0.87007606,-0.13328823,-0.41581407,-0.19795442,0.32172394,0.011068061,-0.39040643,0.67701894,-0.15761262,0.55033165,-0.79236114,-0.11199832,-0.2774181,0.3050318,-0.20327431,0.5830737,0.08648336,0.38825297,0.27553153,-0.6492022,-0.015538912,0.20834073,0.29143643,-0.29351225,0.648202,0.9865314,0.43182242,0
Jungfraujoch_m202009201300.jpg,0.13116428,-0.12981096,-0.9284469,0.8596065,-0.7217544,1.0433332,-0.30723724,-1.8349537,0.20432791,0.29452428,-0.6957282,-0.29306528,1.0396845,-1.3111596,1.2132006,-1.809298,-0.16867115,-0.44060987,0.3147636,-0.49141824,0.8231338,0.5292321,0.86493886,1.0745796,-1.0965627,-0.13029905,0.83516264,1.0586462,0.54529846,1.0599897,1.6347017,0.011410983,0
Jungfraujoch_m202009211300.jpg,-0.13851035,-0.4157078,-0.07608375,0.86507124,0.28355443,0.7791515,0.12443855,0.2918102,-0.1629872,0.28824002,0.20214584,-0.6466527,0.56688344,0.27494785,-0.006728068,-0.3746612,0.019881543,-0.122375466,0.38672477,-0.28734526,0.48437124,0.11558953,0.14691938,0.08626267,-0.48533243,-0.24069402,0.28398997,0.16007099,-0.59736085,0.40297705,0.76858073,0.7097677,0
Jungfraujoch_m202009221300.jpg,-1.0745509,-0.41868508,2.106923,0.98248726,0.56816757,0.3321789,-0.045289807,2.85019,-1.4731326,-0.24265298,1.6284845,-0.5135597,0.09735002,2.8762047,-0.33491778,1.4559467,0.10752229,-0.09201348,0.82764506,0.31825775,1.0190254,-1.6577728,-0.45635945,-1.6544303,0.20293555,0.25190055,-1.2397393,-1.5939544,-2.5005293,0.35680747,-0.13207337,1.2550595,0
